<GAP_2020_8_25_60_11_38_35_731>
<Potential label="GAP_2020_8_25_60_11_38_35_731" init_args="Sum init_args_pot1={IP Glue} init_args_pot2={IP GAP label=GAP_2020_8_25_60_11_38_35_731}"/>
<GAP_2020_8_23_60_0_52_55_798>
<Potential label="GAP_2020_8_23_60_0_52_55_798" init_args="Sum init_args_pot1={IP GLUE} init_args_pot2={IP GAP label=GAP_2020_8_23_60_0_52_55_798}"/>
<quip>
    <Glue_params n_types="2">
    	<per_type_data atomic_num="5" type="1">
    	<!-- B -->
		    <density num_points="2" density_y1="-0.4144" density_yn="0.0">
		      <point a="0.821917808219178" rho="0.00001"/>
		      <point a="1.027397260273973" rho="0.00002"/>
		    </density>
            <potential_density num_points="2">
                <point E="0.0" rho="0.0000001"/>
                <point E="0.0" rho="0.0000002"/>
            </potential_density>
        </per_type_data>
        <per_type_data atomic_num="7" type="2">
    	<!-- N -->
		    <density num_points="2" density_y1="-0.4144" density_yn="0.0">
		      <point a="0.821917808219178" rho="0.00001"/>
		      <point a="1.027397260273973" rho="0.00002"/>
		    </density>
            <potential_density num_points="2">
                <point E="0.0" rho="0.0000001"/>
                <point E="0.0" rho="0.0000002"/>
            </potential_density>
        </per_type_data>
        <per_pair_data type1="1" type2="1">
        	<potential_pair num_points="18" y1="0.0" yn="0.0">
			<point r="3.0" E="0.0"/>
			<point r="4.0" E="-0.007428374039794013"/>
			<point r="4.1" E="-0.0064054636536967505"/>
			<point r="4.2" E="-0.005543167080470114"/>
			<point r="4.3" E="-0.004813300522552586"/>
			<point r="4.4" E="-0.00419312348815198"/>
			<point r="4.5" E="-0.003664195431454784"/>
			<point r="5.0" E="-0.0019473036842877621"/>
			<point r="5.5" E="-0.0010992021636781135"/>
			<point r="6.0" E="-0.0006521480638502289"/>
			<point r="6.5" E="-0.0004034349990413463"/>
			<point r="7.0" E="-0.00025862200330641386"/>
			<point r="7.5" E="-0.0001709567020499544"/>
			<point r="8.0" E="-0.00011606834437178146"/>
			<point r="8.5" E="-8.067521979068238e-5"/>
			<point r="9.0" E="-5.7253053616481e-5"/>
			<point r="9.5" E="-4.139158716759417e-5"/>
			<point r="10.0" E="0.0"/>
		</potential_pair>
        </per_pair_data>
        <per_pair_data type1="2" type2="2">
        	<potential_pair num_points="18" y1="0.0" yn="0.0">
			<point r="3.0" E="0.0"/>
			<point r="4.0" E="-0.006642559187718246"/>
			<point r="4.1" E="-0.005727857969526599"/>
			<point r="4.2" E="-0.004956779938945444"/>
			<point r="4.3" E="-0.004304122737769042"/>
			<point r="4.4" E="-0.0037495514903061436"/>
			<point r="4.5" E="-0.0032765763945672463"/>
			<point r="5.0" E="-0.0017413070357052106"/>
			<point r="5.5" E="-0.000982922425874814"/>
			<point r="6.0" E="-0.0005831602030369929"/>
			<point r="6.5" E="-0.00036075739390251647"/>
			<point r="7.0" E="-0.0002312635248314387"/>
			<point r="7.5" E="-0.00015287194826492948"/>
			<point r="8.0" E="-0.00010378998730809759"/>
			<point r="8.5" E="-7.214094491890263e-5"/>
			<point r="9.0" E="-5.119650616511322e-5"/>
			<point r="9.5" E="-3.701295413524537e-5"/>
			<point r="10.0" E="0.0"/>
		</potential_pair>
        </per_pair_data>
        <per_pair_data type1="1" type2="2">
        	<potential_pair num_points="18" y1="0.0" yn="0.0">
			<point r="3.0" E="0.0"/>
			<point r="4.0" E="-0.00036143958282991857"/>
			<point r="4.1" E="-0.0003116682195083111"/>
			<point r="4.2" E="-0.0002697117816616047"/>
			<point r="4.3" E="-0.00023419894092391137"/>
			<point r="4.4" E="-0.0002040232217970018"/>
			<point r="4.5" E="-0.0001782873696259155"/>
			<point r="5.0" E="-9.474921800136618e-5"/>
			<point r="5.5" E="-5.3483463454753296e-5"/>
			<point r="6.0" E="-3.173132140070615e-5"/>
			<point r="6.5" E="-1.9629783983863083e-5"/>
			<point r="7.0" E="-1.2583672885203838e-5"/>
			<point r="7.5" E="-8.31817551726671e-6"/>
			<point r="8.0" E="-5.647493481717478e-6"/>
			<point r="8.5" E="-3.925383620917505e-6"/>
			<point r="9.0" E="-2.7857401504049296e-6"/>
			<point r="9.5" E="-2.013974783496268e-6"/>
			<point r="10.0" E="0.0"/>
		</potential_pair>
        </per_pair_data>
    </Glue_params>
</quip>
<GAP_params label="GAP_2020_8_23_60_0_52_55_798" gap_version="1595956259">
  <GAP_data do_core="T">
    <e0 Z="1" value=".00000000000000000E+000"/>
    <e0 Z="2" value=".00000000000000000E+000"/>
    <e0 Z="3" value=".00000000000000000E+000"/>
    <e0 Z="4" value=".00000000000000000E+000"/>
    <e0 Z="5" value="-.58277360000000000E-001"/>
    <e0 Z="6" value=".00000000000000000E+000"/>
    <e0 Z="7" value="-.90697760000000002E-001"/>
    <e0 Z="8" value=".00000000000000000E+000"/>
    <e0 Z="9" value=".00000000000000000E+000"/>
    <e0 Z="10" value=".00000000000000000E+000"/>
    <e0 Z="11" value=".00000000000000000E+000"/>
    <e0 Z="12" value=".00000000000000000E+000"/>
    <e0 Z="13" value=".00000000000000000E+000"/>
    <e0 Z="14" value=".00000000000000000E+000"/>
    <e0 Z="15" value=".00000000000000000E+000"/>
    <e0 Z="16" value=".00000000000000000E+000"/>
    <e0 Z="17" value=".00000000000000000E+000"/>
    <e0 Z="18" value=".00000000000000000E+000"/>
    <e0 Z="19" value=".00000000000000000E+000"/>
    <e0 Z="20" value=".00000000000000000E+000"/>
    <e0 Z="21" value=".00000000000000000E+000"/>
    <e0 Z="22" value=".00000000000000000E+000"/>
    <e0 Z="23" value=".00000000000000000E+000"/>
    <e0 Z="24" value=".00000000000000000E+000"/>
    <e0 Z="25" value=".00000000000000000E+000"/>
    <e0 Z="26" value=".00000000000000000E+000"/>
    <e0 Z="27" value=".00000000000000000E+000"/>
    <e0 Z="28" value=".00000000000000000E+000"/>
    <e0 Z="29" value=".00000000000000000E+000"/>
    <e0 Z="30" value=".00000000000000000E+000"/>
    <e0 Z="31" value=".00000000000000000E+000"/>
    <e0 Z="32" value=".00000000000000000E+000"/>
    <e0 Z="33" value=".00000000000000000E+000"/>
    <e0 Z="34" value=".00000000000000000E+000"/>
    <e0 Z="35" value=".00000000000000000E+000"/>
    <e0 Z="36" value=".00000000000000000E+000"/>
    <e0 Z="37" value=".00000000000000000E+000"/>
    <e0 Z="38" value=".00000000000000000E+000"/>
    <e0 Z="39" value=".00000000000000000E+000"/>
    <e0 Z="40" value=".00000000000000000E+000"/>
    <e0 Z="41" value=".00000000000000000E+000"/>
    <e0 Z="42" value=".00000000000000000E+000"/>
    <e0 Z="43" value=".00000000000000000E+000"/>
    <e0 Z="44" value=".00000000000000000E+000"/>
    <e0 Z="45" value=".00000000000000000E+000"/>
    <e0 Z="46" value=".00000000000000000E+000"/>
    <e0 Z="47" value=".00000000000000000E+000"/>
    <e0 Z="48" value=".00000000000000000E+000"/>
    <e0 Z="49" value=".00000000000000000E+000"/>
    <e0 Z="50" value=".00000000000000000E+000"/>
    <e0 Z="51" value=".00000000000000000E+000"/>
    <e0 Z="52" value=".00000000000000000E+000"/>
    <e0 Z="53" value=".00000000000000000E+000"/>
    <e0 Z="54" value=".00000000000000000E+000"/>
    <e0 Z="55" value=".00000000000000000E+000"/>
    <e0 Z="56" value=".00000000000000000E+000"/>
    <e0 Z="57" value=".00000000000000000E+000"/>
    <e0 Z="58" value=".00000000000000000E+000"/>
    <e0 Z="59" value=".00000000000000000E+000"/>
    <e0 Z="60" value=".00000000000000000E+000"/>
    <e0 Z="61" value=".00000000000000000E+000"/>
    <e0 Z="62" value=".00000000000000000E+000"/>
    <e0 Z="63" value=".00000000000000000E+000"/>
    <e0 Z="64" value=".00000000000000000E+000"/>
    <e0 Z="65" value=".00000000000000000E+000"/>
    <e0 Z="66" value=".00000000000000000E+000"/>
    <e0 Z="67" value=".00000000000000000E+000"/>
    <e0 Z="68" value=".00000000000000000E+000"/>
    <e0 Z="69" value=".00000000000000000E+000"/>
    <e0 Z="70" value=".00000000000000000E+000"/>
    <e0 Z="71" value=".00000000000000000E+000"/>
    <e0 Z="72" value=".00000000000000000E+000"/>
    <e0 Z="73" value=".00000000000000000E+000"/>
    <e0 Z="74" value=".00000000000000000E+000"/>
    <e0 Z="75" value=".00000000000000000E+000"/>
    <e0 Z="76" value=".00000000000000000E+000"/>
    <e0 Z="77" value=".00000000000000000E+000"/>
    <e0 Z="78" value=".00000000000000000E+000"/>
    <e0 Z="79" value=".00000000000000000E+000"/>
    <e0 Z="80" value=".00000000000000000E+000"/>
    <e0 Z="81" value=".00000000000000000E+000"/>
    <e0 Z="82" value=".00000000000000000E+000"/>
    <e0 Z="83" value=".00000000000000000E+000"/>
    <e0 Z="84" value=".00000000000000000E+000"/>
    <e0 Z="85" value=".00000000000000000E+000"/>
    <e0 Z="86" value=".00000000000000000E+000"/>
    <e0 Z="87" value=".00000000000000000E+000"/>
    <e0 Z="88" value=".00000000000000000E+000"/>
    <e0 Z="89" value=".00000000000000000E+000"/>
    <e0 Z="90" value=".00000000000000000E+000"/>
    <e0 Z="91" value=".00000000000000000E+000"/>
    <e0 Z="92" value=".00000000000000000E+000"/>
    <e0 Z="93" value=".00000000000000000E+000"/>
    <e0 Z="94" value=".00000000000000000E+000"/>
    <e0 Z="95" value=".00000000000000000E+000"/>
    <e0 Z="96" value=".00000000000000000E+000"/>
    <e0 Z="97" value=".00000000000000000E+000"/>
    <e0 Z="98" value=".00000000000000000E+000"/>
    <e0 Z="99" value=".00000000000000000E+000"/>
    <e0 Z="100" value=".00000000000000000E+000"/>
    <e0 Z="101" value=".00000000000000000E+000"/>
    <e0 Z="102" value=".00000000000000000E+000"/>
    <e0 Z="103" value=".00000000000000000E+000"/>
    <e0 Z="104" value=".00000000000000000E+000"/>
    <e0 Z="105" value=".00000000000000000E+000"/>
    <e0 Z="106" value=".00000000000000000E+000"/>
    <e0 Z="107" value=".00000000000000000E+000"/>
    <e0 Z="108" value=".00000000000000000E+000"/>
    <e0 Z="109" value=".00000000000000000E+000"/>
    <e0 Z="110" value=".00000000000000000E+000"/>
    <e0 Z="111" value=".00000000000000000E+000"/>
    <e0 Z="112" value=".00000000000000000E+000"/>
    <e0 Z="113" value=".00000000000000000E+000"/>
    <e0 Z="114" value=".00000000000000000E+000"/>
    <e0 Z="115" value=".00000000000000000E+000"/>
    <e0 Z="116" value=".00000000000000000E+000"/>
    <e0 Z="117" value=".00000000000000000E+000"/>
    <e0 Z="118" value=".00000000000000000E+000"/>
  </GAP_data>
  <gpSparse label="GAP_2020_8_23_60_0_52_55_798" n_coordinate="3">
    <gpCoordinates label="GAP_2020_8_23_60_0_52_55_7981" dimensions="1" signal_variance="5.0000000000000000" signal_mean=".00000000000000000E+000" sparsified="T" n_permutations="1" covariance_type="1" n_sparseX="15">
      <theta>  0.50000000000000000E+000 </theta>
      <descriptor>distance_2b n_sparse=15 theta_uniform=0.5 sparse_method=uniform covariance_type=ard_se cutoff=4.0 delta=5.0               Z1=5 Z2=5</descriptor>
      <permutation i="1">1  </permutation>
      <sparseX i="1" alpha="-558.76444487944377" sparseCutoff="1.0000000000000000">  0.22585033339620679E+001  </sparseX>
      <sparseX i="2" alpha="7.4972736193931464" sparseCutoff=".74762765661595842E-001">  0.39118425354580051E+001  </sparseX>
      <sparseX i="3" alpha="-6.8464174590831730" sparseCutoff=".78966619436731289">  0.36516566663648842E+001  </sparseX>
      <sparseX i="4" alpha="-1700.0688089805053" sparseCutoff="1.0000000000000000">  0.13801964799999999E+001  </sparseX>
      <sparseX i="5" alpha="-142.53287249666079" sparseCutoff="1.0000000000000000">  0.27603929705761430E+001  </sparseX>
      <sparseX i="6" alpha="1477.9756897971236" sparseCutoff="1.0000000000000000">  0.13049130379478842E+001  </sparseX>
      <sparseX i="7" alpha="208.19550462759773" sparseCutoff="1.0000000000000000">  0.26098260799999999E+001  </sparseX>
      <sparseX i="8" alpha="38.753421721415357" sparseCutoff="1.0000000000000000">  0.34524753990642489E+001  </sparseX>
      <sparseX i="9" alpha="-1869.9580740487286" sparseCutoff="1.0000000000000000">  0.19573695569218261E+001  </sparseX>
      <sparseX i="10" alpha="-216.35875729510988" sparseCutoff="1.0000000000000000">  0.97868478000000003E+000  </sparseX>
      <sparseX i="11" alpha="878.13601928604692" sparseCutoff="1.0000000000000000">  0.16951317600000000E+001  </sparseX>
      <sparseX i="12" alpha="-41.753100467579614" sparseCutoff="1.0000000000000000">  0.33902635253315534E+001  </sparseX>
      <sparseX i="13" alpha="69.432933206248023" sparseCutoff="1.0000000000000000">  0.75283444010060463E+000  </sparseX>
      <sparseX i="14" alpha="36.687420620718058" sparseCutoff="1.0000000000000000">  0.30113377799999999E+001  </sparseX>
      <sparseX i="15" alpha="1829.3840554630508" sparseCutoff="1.0000000000000000">  0.20645835600000000E+001  </sparseX>
    </gpCoordinates>
    <gpCoordinates label="GAP_2020_8_23_60_0_52_55_7982" dimensions="1" signal_variance="5.0000000000000000" signal_mean=".00000000000000000E+000" sparsified="T" n_permutations="1" covariance_type="1" n_sparseX="15">
      <theta>  0.50000000000000000E+000 </theta>
      <descriptor>distance_2b n_sparse=15 theta_uniform=0.5 sparse_method=uniform covariance_type=ard_se cutoff=4.0 delta=5.0               Z1=5 Z2=7</descriptor>
      <permutation i="1">1  </permutation>
      <sparseX i="1" alpha="-6.5843725729534865" sparseCutoff="1.0000000000000000">  0.34499208562849657E+001  </sparseX>
      <sparseX i="2" alpha="82.553906547759738" sparseCutoff="1.0000000000000000">  0.13039474900000003E+001  </sparseX>
      <sparseX i="3" alpha="32.038091681297878" sparseCutoff="1.0000000000000000">  0.26078950342925111E+001  </sparseX>
      <sparseX i="4" alpha="-16.480459242549681" sparseCutoff="1.0000000000000000">  0.28731080825382298E+001  </sparseX>
      <sparseX i="5" alpha="28.628837381285095" sparseCutoff="1.0000000000000000">  0.21082849477572259E+001  </sparseX>
      <sparseX i="6" alpha="118.58830781202968" sparseCutoff="1.0000000000000000">  0.15937136362143691E+001  </sparseX>
      <sparseX i="7" alpha="10.409239573733700" sparseCutoff="1.0000000000000000">  0.31874272427877215E+001  </sparseX>
      <sparseX i="8" alpha="-469.64882696504009" sparseCutoff=".24357179422833664E-002">  0.39842840700000002E+001  </sparseX>
      <sparseX i="9" alpha="151.80981119747767" sparseCutoff="1.0000000000000000">  0.79685681000000030E+000  </sparseX>
      <sparseX i="10" alpha="-30.660280701663510" sparseCutoff="1.0000000000000000">  0.19932876059019449E+001  </sparseX>
      <sparseX i="11" alpha="-168.26578317619365" sparseCutoff="1.0000000000000000">  0.15067837960298336E+001  </sparseX>
      <sparseX i="12" alpha="7.0570668917114174" sparseCutoff=".44682098210871790">  0.37669594845842029E+001  </sparseX>
      <sparseX i="13" alpha="-28.680226370846128" sparseCutoff="1.0000000000000000">  0.24629693422515930E+001  </sparseX>
      <sparseX i="14" alpha="-18.752034444565759" sparseCutoff="1.0000000000000000">  0.53606732237408572E+000  </sparseX>
      <sparseX i="15" alpha="-157.24440461311738" sparseCutoff="1.0000000000000000">  0.86929834354408586E+000  </sparseX>
    </gpCoordinates>
    <gpCoordinates label="GAP_2020_8_23_60_0_52_55_7983" dimensions="1" signal_variance="5.0000000000000000" signal_mean=".00000000000000000E+000" sparsified="T" n_permutations="1" covariance_type="1" n_sparseX="15">
      <theta>  0.50000000000000000E+000 </theta>
      <descriptor>distance_2b n_sparse=15 theta_uniform=0.5 sparse_method=uniform covariance_type=ard_se cutoff=4.0 delta=5.0               Z1=7 Z2=7</descriptor>
      <permutation i="1">1  </permutation>
      <sparseX i="1" alpha="-556.95653422551163" sparseCutoff="1.0000000000000000">  0.22585033426223222E+001  </sparseX>
      <sparseX i="2" alpha="-1699.2860331927031" sparseCutoff="1.0000000000000000">  0.13801964899999999E+001  </sparseX>
      <sparseX i="3" alpha="-140.76388976208824" sparseCutoff="1.0000000000000000">  0.27603929755761429E+001  </sparseX>
      <sparseX i="4" alpha="-6.2971352805776881" sparseCutoff=".78966619436731289">  0.36516566663648842E+001  </sparseX>
      <sparseX i="5" alpha="206.48473212838817" sparseCutoff="1.0000000000000000">  0.26098260799999999E+001  </sparseX>
      <sparseX i="6" alpha="1477.3871446751432" sparseCutoff="1.0000000000000000">  0.13049130379478842E+001  </sparseX>
      <sparseX i="7" alpha="7.1197500898757182" sparseCutoff=".70046746073669619E-001">  0.39147391311641608E+001  </sparseX>
      <sparseX i="8" alpha="36.398993666919530" sparseCutoff="1.0000000000000000">  0.34524753892444440E+001  </sparseX>
      <sparseX i="9" alpha="-39.461599955936443" sparseCutoff="1.0000000000000000">  0.33902635253315534E+001  </sparseX>
      <sparseX i="10" alpha="-1867.0462353808775" sparseCutoff="1.0000000000000000">  0.19573695600000001E+001  </sparseX>
      <sparseX i="11" alpha="-216.31213116627106" sparseCutoff="1.0000000000000000">  0.97868478000000003E+000  </sparseX>
      <sparseX i="12" alpha="877.37081297198097" sparseCutoff="1.0000000000000000">  0.16951317626657767E+001  </sparseX>
      <sparseX i="13" alpha="69.423303777765426" sparseCutoff="1.0000000000000000">  0.75283445000000015E+000  </sparseX>
      <sparseX i="14" alpha="35.799741016301596" sparseCutoff="1.0000000000000000">  0.30113377777229262E+001  </sparseX>
      <sparseX i="15" alpha="1825.7177303973019" sparseCutoff="1.0000000000000000">  0.20645835600000000E+001  </sparseX>
    </gpCoordinates>
  </gpSparse>
  <command_line><![CDATA[ at_file=mono_comp_PBE_labeled.xyz gap={distance_2b n_sparse=15 theta_uniform=0.5 sparse_method=uniform covariance_type=ard_se cutoff=4.0 delta=5.0 add_species=T} e0={B:-0.05827736:N:-0.09069776} sparse_separate_file=F do_copy_at_file=F gp_file=glue_refit_200820_sig.xml energy_parameter_name=energy default_sigma={0.0125 0.0125 0.5 0.0} core_param_file=r6_refit_200812.xml core_ip_args="IP GLUE"]]></command_line>
</GAP_params>
</GAP_2020_8_23_60_0_52_55_798>
<GAP_params label="GAP_2020_8_25_60_11_38_35_731" gap_version="1595956259">
  <GAP_data do_core="T">
    <e0 Z="1" value=".00000000000000000E+000"/>
    <e0 Z="2" value=".00000000000000000E+000"/>
    <e0 Z="3" value=".00000000000000000E+000"/>
    <e0 Z="4" value=".00000000000000000E+000"/>
    <e0 Z="5" value="-.58277360000000000E-001"/>
    <e0 Z="6" value=".00000000000000000E+000"/>
    <e0 Z="7" value="-.90697760000000002E-001"/>
    <e0 Z="8" value=".00000000000000000E+000"/>
    <e0 Z="9" value=".00000000000000000E+000"/>
    <e0 Z="10" value=".00000000000000000E+000"/>
    <e0 Z="11" value=".00000000000000000E+000"/>
    <e0 Z="12" value=".00000000000000000E+000"/>
    <e0 Z="13" value=".00000000000000000E+000"/>
    <e0 Z="14" value=".00000000000000000E+000"/>
    <e0 Z="15" value=".00000000000000000E+000"/>
    <e0 Z="16" value=".00000000000000000E+000"/>
    <e0 Z="17" value=".00000000000000000E+000"/>
    <e0 Z="18" value=".00000000000000000E+000"/>
    <e0 Z="19" value=".00000000000000000E+000"/>
    <e0 Z="20" value=".00000000000000000E+000"/>
    <e0 Z="21" value=".00000000000000000E+000"/>
    <e0 Z="22" value=".00000000000000000E+000"/>
    <e0 Z="23" value=".00000000000000000E+000"/>
    <e0 Z="24" value=".00000000000000000E+000"/>
    <e0 Z="25" value=".00000000000000000E+000"/>
    <e0 Z="26" value=".00000000000000000E+000"/>
    <e0 Z="27" value=".00000000000000000E+000"/>
    <e0 Z="28" value=".00000000000000000E+000"/>
    <e0 Z="29" value=".00000000000000000E+000"/>
    <e0 Z="30" value=".00000000000000000E+000"/>
    <e0 Z="31" value=".00000000000000000E+000"/>
    <e0 Z="32" value=".00000000000000000E+000"/>
    <e0 Z="33" value=".00000000000000000E+000"/>
    <e0 Z="34" value=".00000000000000000E+000"/>
    <e0 Z="35" value=".00000000000000000E+000"/>
    <e0 Z="36" value=".00000000000000000E+000"/>
    <e0 Z="37" value=".00000000000000000E+000"/>
    <e0 Z="38" value=".00000000000000000E+000"/>
    <e0 Z="39" value=".00000000000000000E+000"/>
    <e0 Z="40" value=".00000000000000000E+000"/>
    <e0 Z="41" value=".00000000000000000E+000"/>
    <e0 Z="42" value=".00000000000000000E+000"/>
    <e0 Z="43" value=".00000000000000000E+000"/>
    <e0 Z="44" value=".00000000000000000E+000"/>
    <e0 Z="45" value=".00000000000000000E+000"/>
    <e0 Z="46" value=".00000000000000000E+000"/>
    <e0 Z="47" value=".00000000000000000E+000"/>
    <e0 Z="48" value=".00000000000000000E+000"/>
    <e0 Z="49" value=".00000000000000000E+000"/>
    <e0 Z="50" value=".00000000000000000E+000"/>
    <e0 Z="51" value=".00000000000000000E+000"/>
    <e0 Z="52" value=".00000000000000000E+000"/>
    <e0 Z="53" value=".00000000000000000E+000"/>
    <e0 Z="54" value=".00000000000000000E+000"/>
    <e0 Z="55" value=".00000000000000000E+000"/>
    <e0 Z="56" value=".00000000000000000E+000"/>
    <e0 Z="57" value=".00000000000000000E+000"/>
    <e0 Z="58" value=".00000000000000000E+000"/>
    <e0 Z="59" value=".00000000000000000E+000"/>
    <e0 Z="60" value=".00000000000000000E+000"/>
    <e0 Z="61" value=".00000000000000000E+000"/>
    <e0 Z="62" value=".00000000000000000E+000"/>
    <e0 Z="63" value=".00000000000000000E+000"/>
    <e0 Z="64" value=".00000000000000000E+000"/>
    <e0 Z="65" value=".00000000000000000E+000"/>
    <e0 Z="66" value=".00000000000000000E+000"/>
    <e0 Z="67" value=".00000000000000000E+000"/>
    <e0 Z="68" value=".00000000000000000E+000"/>
    <e0 Z="69" value=".00000000000000000E+000"/>
    <e0 Z="70" value=".00000000000000000E+000"/>
    <e0 Z="71" value=".00000000000000000E+000"/>
    <e0 Z="72" value=".00000000000000000E+000"/>
    <e0 Z="73" value=".00000000000000000E+000"/>
    <e0 Z="74" value=".00000000000000000E+000"/>
    <e0 Z="75" value=".00000000000000000E+000"/>
    <e0 Z="76" value=".00000000000000000E+000"/>
    <e0 Z="77" value=".00000000000000000E+000"/>
    <e0 Z="78" value=".00000000000000000E+000"/>
    <e0 Z="79" value=".00000000000000000E+000"/>
    <e0 Z="80" value=".00000000000000000E+000"/>
    <e0 Z="81" value=".00000000000000000E+000"/>
    <e0 Z="82" value=".00000000000000000E+000"/>
    <e0 Z="83" value=".00000000000000000E+000"/>
    <e0 Z="84" value=".00000000000000000E+000"/>
    <e0 Z="85" value=".00000000000000000E+000"/>
    <e0 Z="86" value=".00000000000000000E+000"/>
    <e0 Z="87" value=".00000000000000000E+000"/>
    <e0 Z="88" value=".00000000000000000E+000"/>
    <e0 Z="89" value=".00000000000000000E+000"/>
    <e0 Z="90" value=".00000000000000000E+000"/>
    <e0 Z="91" value=".00000000000000000E+000"/>
    <e0 Z="92" value=".00000000000000000E+000"/>
    <e0 Z="93" value=".00000000000000000E+000"/>
    <e0 Z="94" value=".00000000000000000E+000"/>
    <e0 Z="95" value=".00000000000000000E+000"/>
    <e0 Z="96" value=".00000000000000000E+000"/>
    <e0 Z="97" value=".00000000000000000E+000"/>
    <e0 Z="98" value=".00000000000000000E+000"/>
    <e0 Z="99" value=".00000000000000000E+000"/>
    <e0 Z="100" value=".00000000000000000E+000"/>
    <e0 Z="101" value=".00000000000000000E+000"/>
    <e0 Z="102" value=".00000000000000000E+000"/>
    <e0 Z="103" value=".00000000000000000E+000"/>
    <e0 Z="104" value=".00000000000000000E+000"/>
    <e0 Z="105" value=".00000000000000000E+000"/>
    <e0 Z="106" value=".00000000000000000E+000"/>
    <e0 Z="107" value=".00000000000000000E+000"/>
    <e0 Z="108" value=".00000000000000000E+000"/>
    <e0 Z="109" value=".00000000000000000E+000"/>
    <e0 Z="110" value=".00000000000000000E+000"/>
    <e0 Z="111" value=".00000000000000000E+000"/>
    <e0 Z="112" value=".00000000000000000E+000"/>
    <e0 Z="113" value=".00000000000000000E+000"/>
    <e0 Z="114" value=".00000000000000000E+000"/>
    <e0 Z="115" value=".00000000000000000E+000"/>
    <e0 Z="116" value=".00000000000000000E+000"/>
    <e0 Z="117" value=".00000000000000000E+000"/>
    <e0 Z="118" value=".00000000000000000E+000"/>
  </GAP_data>
  <gpSparse label="GAP_2020_8_25_60_11_38_35_731" n_coordinate="5">
    <gpCoordinates label="GAP_2020_8_25_60_11_38_35_7311" dimensions="1" signal_variance=".50000000000000000" signal_mean=".00000000000000000E+000" sparsified="T" n_permutations="1" covariance_type="1" n_sparseX="50" sparseX_filename="hBN_GAP.xml.sparseX.GAP_2020_8_25_60_11_38_35_7311" sparseX_md5sum="4565d5e2d23a0a538412ce00b27a0195">
      <theta>  0.50000000000000000E+000 </theta>
      <descriptor>distance_2b n_sparse=50 theta_uniform=0.5 sparse_method=uniform covariance_type=ard_se cutoff=4.5 delta=0.5               Z1=7 Z2=7</descriptor>
      <permutation i="1">1  </permutation>
      <sparseX i="1" alpha="-9667102.0889394917" sparseCutoff=".13828504483270576"/>
      <sparseX i="2" alpha="-3095156.0775935408" sparseCutoff=".26692480198187607"/>
      <sparseX i="3" alpha="6880987.8258880368" sparseCutoff="1.0000000000000000"/>
      <sparseX i="4" alpha="5504688.7482495792" sparseCutoff="1.0000000000000000"/>
      <sparseX i="5" alpha="-5440798.8821127126" sparseCutoff="1.0000000000000000"/>
      <sparseX i="6" alpha="-991186.07931563631" sparseCutoff="1.0000000000000000"/>
      <sparseX i="7" alpha="4822019.5327750547" sparseCutoff="1.0000000000000000"/>
      <sparseX i="8" alpha="-4496403.8381181043" sparseCutoff="1.0000000000000000"/>
      <sparseX i="9" alpha="-5280407.7167943241" sparseCutoff=".70817809715611690"/>
      <sparseX i="10" alpha="-4767997.5409364114" sparseCutoff="1.0000000000000000"/>
      <sparseX i="11" alpha="930160.86259116977" sparseCutoff=".33127793777637526E-003"/>
      <sparseX i="12" alpha="-567915.11328449228" sparseCutoff="1.0000000000000000"/>
      <sparseX i="13" alpha="-2827529.5704325475" sparseCutoff="1.0000000000000000"/>
      <sparseX i="14" alpha="4475794.5956370896" sparseCutoff=".34723812691328859"/>
      <sparseX i="15" alpha="12341410.829485815" sparseCutoff=".32680630478471251E-001"/>
      <sparseX i="16" alpha="7721557.7269603238" sparseCutoff=".49693277980508160"/>
      <sparseX i="17" alpha="1759931.9296108705" sparseCutoff="1.0000000000000000"/>
      <sparseX i="18" alpha="-3471068.8900125823" sparseCutoff="1.0000000000000000"/>
      <sparseX i="19" alpha="-6529640.0587901026" sparseCutoff=".85024312631827526"/>
      <sparseX i="20" alpha="-7077189.4190713270" sparseCutoff="1.0000000000000000"/>
      <sparseX i="21" alpha="-1830862.4672920976" sparseCutoff="1.0000000000000000"/>
      <sparseX i="22" alpha="5503584.2343341513" sparseCutoff="1.0000000000000000"/>
      <sparseX i="23" alpha="-6182687.1542417323" sparseCutoff="1.0000000000000000"/>
      <sparseX i="24" alpha="2296729.9322843039" sparseCutoff=".94782979631691588"/>
      <sparseX i="25" alpha="-3731489.8717769017" sparseCutoff="1.0000000000000000"/>
      <sparseX i="26" alpha="-3124199.3770033089" sparseCutoff="1.0000000000000000"/>
      <sparseX i="27" alpha="2194877.2401537737" sparseCutoff="1.0000000000000000"/>
      <sparseX i="28" alpha="5951081.2160736648" sparseCutoff="1.0000000000000000"/>
      <sparseX i="29" alpha="2653267.3300196393" sparseCutoff="1.0000000000000000"/>
      <sparseX i="30" alpha="6358813.6595679000" sparseCutoff="1.0000000000000000"/>
      <sparseX i="31" alpha="6719917.2358535128" sparseCutoff="1.0000000000000000"/>
      <sparseX i="32" alpha="7776071.1992797293" sparseCutoff=".99643813525234870"/>
      <sparseX i="33" alpha="-3060642.3500202745" sparseCutoff="1.0000000000000000"/>
      <sparseX i="34" alpha="-4886264.7896176595" sparseCutoff="1.0000000000000000"/>
      <sparseX i="35" alpha="5899447.5872318158" sparseCutoff="1.0000000000000000"/>
      <sparseX i="36" alpha="2463042.9834874594" sparseCutoff="1.0000000000000000"/>
      <sparseX i="37" alpha="3324318.9902855684" sparseCutoff="1.0000000000000000"/>
      <sparseX i="38" alpha="2684841.5609857589" sparseCutoff="1.0000000000000000"/>
      <sparseX i="39" alpha="6110038.4007179243" sparseCutoff="1.0000000000000000"/>
      <sparseX i="40" alpha="-1458874.4047910480" sparseCutoff="1.0000000000000000"/>
      <sparseX i="41" alpha="-4708166.3210379835" sparseCutoff="1.0000000000000000"/>
      <sparseX i="42" alpha="1900289.0252174893" sparseCutoff="1.0000000000000000"/>
      <sparseX i="43" alpha="-6461244.0453403052" sparseCutoff="1.0000000000000000"/>
      <sparseX i="44" alpha="-5431222.3072760766" sparseCutoff="1.0000000000000000"/>
      <sparseX i="45" alpha="-4594687.4081306420" sparseCutoff="1.0000000000000000"/>
      <sparseX i="46" alpha="1697608.3600514566" sparseCutoff="1.0000000000000000"/>
      <sparseX i="47" alpha="-3971320.1707124761" sparseCutoff="1.0000000000000000"/>
      <sparseX i="48" alpha="1291358.6199765161" sparseCutoff="1.0000000000000000"/>
      <sparseX i="49" alpha="8225170.4180105254" sparseCutoff="1.0000000000000000"/>
      <sparseX i="50" alpha="-7129466.3592047310" sparseCutoff="1.0000000000000000"/>
    </gpCoordinates>
    <gpCoordinates label="GAP_2020_8_25_60_11_38_35_7312" dimensions="1" signal_variance=".50000000000000000" signal_mean=".00000000000000000E+000" sparsified="T" n_permutations="1" covariance_type="1" n_sparseX="50" sparseX_filename="hBN_GAP.xml.sparseX.GAP_2020_8_25_60_11_38_35_7312" sparseX_md5sum="fc194888440767ed0696f504f444dc17">
      <theta>  0.50000000000000000E+000 </theta>
      <descriptor>distance_2b n_sparse=50 theta_uniform=0.5 sparse_method=uniform covariance_type=ard_se cutoff=4.5 delta=0.5               Z1=7 Z2=5</descriptor>
      <permutation i="1">1  </permutation>
      <sparseX i="1" alpha="-6829887.2490957882" sparseCutoff="1.0000000000000000"/>
      <sparseX i="2" alpha="1853539.2788920507" sparseCutoff="1.0000000000000000"/>
      <sparseX i="3" alpha="1861920.1941104594" sparseCutoff="1.0000000000000000"/>
      <sparseX i="4" alpha="5582052.2667613355" sparseCutoff="1.0000000000000000"/>
      <sparseX i="5" alpha="-13562110.728301730" sparseCutoff="1.0000000000000000"/>
      <sparseX i="6" alpha="4867523.7299041944" sparseCutoff=".87824452633504213"/>
      <sparseX i="7" alpha="-8961411.9932668563" sparseCutoff="1.0000000000000000"/>
      <sparseX i="8" alpha="-5820140.2730324389" sparseCutoff="1.0000000000000000"/>
      <sparseX i="9" alpha="-9906390.5533297285" sparseCutoff="1.0000000000000000"/>
      <sparseX i="10" alpha="-6515586.4595845165" sparseCutoff="1.0000000000000000"/>
      <sparseX i="11" alpha="-7844250.5224556252" sparseCutoff="1.0000000000000000"/>
      <sparseX i="12" alpha="15389703.652893202" sparseCutoff="1.0000000000000000"/>
      <sparseX i="13" alpha="4702276.0059603732" sparseCutoff=".73934305857758487"/>
      <sparseX i="14" alpha="-8071291.8104388760" sparseCutoff="1.0000000000000000"/>
      <sparseX i="15" alpha="-7436175.0950165857" sparseCutoff="1.0000000000000000"/>
      <sparseX i="16" alpha="-1014369.9914938570" sparseCutoff=".68434721011102484"/>
      <sparseX i="17" alpha="12722254.265903946" sparseCutoff="1.0000000000000000"/>
      <sparseX i="18" alpha="-6679756.8228830677" sparseCutoff="1.0000000000000000"/>
      <sparseX i="19" alpha="12659152.283416556" sparseCutoff="1.0000000000000000"/>
      <sparseX i="20" alpha="5373814.2321637021" sparseCutoff="1.0000000000000000"/>
      <sparseX i="21" alpha="2807931.8199226917" sparseCutoff="1.0000000000000000"/>
      <sparseX i="22" alpha="2383140.2226379756" sparseCutoff="1.0000000000000000"/>
      <sparseX i="23" alpha="-8420487.8221724350" sparseCutoff=".40950046893133257"/>
      <sparseX i="24" alpha="14671977.000395317" sparseCutoff=".11789057771790551"/>
      <sparseX i="25" alpha="10050980.747347377" sparseCutoff="1.0000000000000000"/>
      <sparseX i="26" alpha="9831118.5773090590" sparseCutoff="1.0000000000000000"/>
      <sparseX i="27" alpha="-4111348.1292998632" sparseCutoff=".85274600533025047E-001"/>
      <sparseX i="28" alpha="1705004.3026935267" sparseCutoff="1.0000000000000000"/>
      <sparseX i="29" alpha="2492685.0702095972" sparseCutoff="1.0000000000000000"/>
      <sparseX i="30" alpha="-15628087.263422554" sparseCutoff="1.0000000000000000"/>
      <sparseX i="31" alpha="12466723.127675932" sparseCutoff="1.0000000000000000"/>
      <sparseX i="32" alpha="11442958.696779851" sparseCutoff="1.0000000000000000"/>
      <sparseX i="33" alpha="-31286507.222026233" sparseCutoff=".81335427222029577E-002"/>
      <sparseX i="34" alpha="-11381824.058714800" sparseCutoff="1.0000000000000000"/>
      <sparseX i="35" alpha="-9462516.6179517657" sparseCutoff="1.0000000000000000"/>
      <sparseX i="36" alpha="-3603929.0961716436" sparseCutoff="1.0000000000000000"/>
      <sparseX i="37" alpha="-97472.098862622632" sparseCutoff="1.0000000000000000"/>
      <sparseX i="38" alpha="10426832.710994150" sparseCutoff="1.0000000000000000"/>
      <sparseX i="39" alpha="1383489.7931412747" sparseCutoff="1.0000000000000000"/>
      <sparseX i="40" alpha="10311317.525725070" sparseCutoff="1.0000000000000000"/>
      <sparseX i="41" alpha="-7833900.3965965463" sparseCutoff="1.0000000000000000"/>
      <sparseX i="42" alpha="-5132539.1435985323" sparseCutoff="1.0000000000000000"/>
      <sparseX i="43" alpha="9259228.1834744457" sparseCutoff="1.0000000000000000"/>
      <sparseX i="44" alpha="-4634184.1654124931" sparseCutoff="1.0000000000000000"/>
      <sparseX i="45" alpha="-12171982.427848896" sparseCutoff="1.0000000000000000"/>
      <sparseX i="46" alpha="6584771.2927614506" sparseCutoff="1.0000000000000000"/>
      <sparseX i="47" alpha="13650463.488389635" sparseCutoff="1.0000000000000000"/>
      <sparseX i="48" alpha="-4027666.8236339670" sparseCutoff="1.0000000000000000"/>
      <sparseX i="49" alpha="1646604.4771176793" sparseCutoff="1.0000000000000000"/>
      <sparseX i="50" alpha="-11018168.513588358" sparseCutoff="1.0000000000000000"/>
    </gpCoordinates>
    <gpCoordinates label="GAP_2020_8_25_60_11_38_35_7313" dimensions="1" signal_variance=".50000000000000000" signal_mean=".00000000000000000E+000" sparsified="T" n_permutations="1" covariance_type="1" n_sparseX="50" sparseX_filename="hBN_GAP.xml.sparseX.GAP_2020_8_25_60_11_38_35_7313" sparseX_md5sum="99c904e0225d9a9bc4892e6c412c4f72">
      <theta>  0.50000000000000000E+000 </theta>
      <descriptor>distance_2b n_sparse=50 theta_uniform=0.5 sparse_method=uniform covariance_type=ard_se cutoff=4.5 delta=0.5               Z1=5 Z2=5</descriptor>
      <permutation i="1">1  </permutation>
      <sparseX i="1" alpha="850749.77296266961" sparseCutoff=".71186432616393236E-001"/>
      <sparseX i="2" alpha="-2527181.4195799832" sparseCutoff=".11381234166674153"/>
      <sparseX i="3" alpha="1057123.8221056839" sparseCutoff=".37042315626397926"/>
      <sparseX i="4" alpha="-199767.34246854432" sparseCutoff=".58761941438991194"/>
      <sparseX i="5" alpha="-4263801.4369587181" sparseCutoff="1.0000000000000000"/>
      <sparseX i="6" alpha="1636872.3235233533" sparseCutoff="1.0000000000000000"/>
      <sparseX i="7" alpha="-2482216.3496323153" sparseCutoff="1.0000000000000000"/>
      <sparseX i="8" alpha="-208556.14213236157" sparseCutoff="1.0000000000000000"/>
      <sparseX i="9" alpha="2646317.8601483637" sparseCutoff="1.0000000000000000"/>
      <sparseX i="10" alpha="3036816.2060742374" sparseCutoff="1.0000000000000000"/>
      <sparseX i="11" alpha="-3872665.1628754362" sparseCutoff="1.0000000000000000"/>
      <sparseX i="12" alpha="680223.62818467873" sparseCutoff=".35118539696617213"/>
      <sparseX i="13" alpha="98609.290945018613" sparseCutoff="1.0000000000000000"/>
      <sparseX i="14" alpha="-2836539.5184186092" sparseCutoff="1.0000000000000000"/>
      <sparseX i="15" alpha="-3789511.7396571115" sparseCutoff="1.0000000000000000"/>
      <sparseX i="16" alpha="1020466.3159036941" sparseCutoff=".92247542693774831"/>
      <sparseX i="17" alpha="-2534748.7268323177" sparseCutoff="1.0000000000000000"/>
      <sparseX i="18" alpha="-1708483.6214233821" sparseCutoff="1.0000000000000000"/>
      <sparseX i="19" alpha="-2296579.6353399069" sparseCutoff="1.0000000000000000"/>
      <sparseX i="20" alpha="-2247523.8806713694" sparseCutoff=".80345985160989519"/>
      <sparseX i="21" alpha="809328.21646397782" sparseCutoff="1.0000000000000000"/>
      <sparseX i="22" alpha="4420884.7001036769" sparseCutoff="1.0000000000000000"/>
      <sparseX i="23" alpha="2778490.9681765814" sparseCutoff=".99708784933380457"/>
      <sparseX i="24" alpha="-1681421.0186630031" sparseCutoff="1.0000000000000000"/>
      <sparseX i="25" alpha="1878265.1363954856" sparseCutoff="1.0000000000000000"/>
      <sparseX i="26" alpha="-1677916.4904802619" sparseCutoff="1.0000000000000000"/>
      <sparseX i="27" alpha="4012210.1899469062" sparseCutoff=".73384694601185130E-002"/>
      <sparseX i="28" alpha="2618769.0082223862" sparseCutoff="1.0000000000000000"/>
      <sparseX i="29" alpha="4451847.2492958829" sparseCutoff="1.0000000000000000"/>
      <sparseX i="30" alpha="2612990.8399691423" sparseCutoff="1.0000000000000000"/>
      <sparseX i="31" alpha="536018.04478171968" sparseCutoff="1.0000000000000000"/>
      <sparseX i="32" alpha="2773403.2839568085" sparseCutoff="1.0000000000000000"/>
      <sparseX i="33" alpha="1907334.7897522019" sparseCutoff="1.0000000000000000"/>
      <sparseX i="34" alpha="1590644.2399643993" sparseCutoff="1.0000000000000000"/>
      <sparseX i="35" alpha="2873691.5591335935" sparseCutoff="1.0000000000000000"/>
      <sparseX i="36" alpha="-1623109.0798488096" sparseCutoff="1.0000000000000000"/>
      <sparseX i="37" alpha="364927.15091429785" sparseCutoff="1.0000000000000000"/>
      <sparseX i="38" alpha="-3061219.5058607659" sparseCutoff="1.0000000000000000"/>
      <sparseX i="39" alpha="-5565362.0495782476" sparseCutoff="1.0000000000000000"/>
      <sparseX i="40" alpha="4975224.3209834695" sparseCutoff="1.0000000000000000"/>
      <sparseX i="41" alpha="-1429928.5131627629" sparseCutoff="1.0000000000000000"/>
      <sparseX i="42" alpha="5503581.1786403693" sparseCutoff="1.0000000000000000"/>
      <sparseX i="43" alpha="-861934.26869733876" sparseCutoff="1.0000000000000000"/>
      <sparseX i="44" alpha="-6558329.8001593491" sparseCutoff="1.0000000000000000"/>
      <sparseX i="45" alpha="-950926.42199998291" sparseCutoff="1.0000000000000000"/>
      <sparseX i="46" alpha="-8767514.0317442156" sparseCutoff="1.0000000000000000"/>
      <sparseX i="47" alpha="6968573.2538747359" sparseCutoff="1.0000000000000000"/>
      <sparseX i="48" alpha="3578283.0332176760" sparseCutoff="1.0000000000000000"/>
      <sparseX i="49" alpha="-139921.99469824060" sparseCutoff="1.0000000000000000"/>
      <sparseX i="50" alpha="-1193100.6757109093" sparseCutoff="1.0000000000000000"/>
    </gpCoordinates>
    <gpCoordinates label="GAP_2020_8_25_60_11_38_35_7314" dimensions="1225" signal_variance=".10000000000000001E+000" signal_mean=".00000000000000000E+000" sparsified="T" n_permutations="1" covariance_type="2" zeta="2.0000000000000000" n_sparseX="2500" sparseX_filename="hBN_GAP.xml.sparseX.GAP_2020_8_25_60_11_38_35_7314" sparseX_md5sum="c224e24e4c38b4eb036499feb77fcffe">
      <descriptor> soap l_max=8 n_max=8 atom_sigma=0.4 zeta=2 cutoff=4.5 cutoff_transition_width=0.5 n_sparse=2500 covariance_type=dot_product sparse_method=cur_points               delta=0.1 n_species=2 Z=7 species_Z={7 5 }</descriptor>
      <permutation i="1">1  </permutation>
      <sparseX i="1" alpha="-3.9280087774722632" sparseCutoff="1.0000000000000000"/>
      <sparseX i="2" alpha="-76148.447333356205" sparseCutoff="1.0000000000000000"/>
      <sparseX i="3" alpha="7624.6663538348812" sparseCutoff="1.0000000000000000"/>
      <sparseX i="4" alpha="-54842.104315080331" sparseCutoff="1.0000000000000000"/>
      <sparseX i="5" alpha="-151409.16436408125" sparseCutoff="1.0000000000000000"/>
      <sparseX i="6" alpha="-61626.386110361716" sparseCutoff="1.0000000000000000"/>
      <sparseX i="7" alpha="3380.3054687712643" sparseCutoff="1.0000000000000000"/>
      <sparseX i="8" alpha="61224.894319738531" sparseCutoff="1.0000000000000000"/>
      <sparseX i="9" alpha="-122041.77251706152" sparseCutoff="1.0000000000000000"/>
      <sparseX i="10" alpha="111237.22064317242" sparseCutoff="1.0000000000000000"/>
      <sparseX i="11" alpha="4886.2406447615313" sparseCutoff="1.0000000000000000"/>
      <sparseX i="12" alpha="10068.501050897128" sparseCutoff="1.0000000000000000"/>
      <sparseX i="13" alpha="14063.584562053775" sparseCutoff="1.0000000000000000"/>
      <sparseX i="14" alpha="-22256.776830273215" sparseCutoff="1.0000000000000000"/>
      <sparseX i="15" alpha="9551.6485578242373" sparseCutoff="1.0000000000000000"/>
      <sparseX i="16" alpha="-173099.40112036551" sparseCutoff="1.0000000000000000"/>
      <sparseX i="17" alpha="-8687.5701646232465" sparseCutoff="1.0000000000000000"/>
      <sparseX i="18" alpha="-23874.447430123888" sparseCutoff="1.0000000000000000"/>
      <sparseX i="19" alpha="53813.783733600554" sparseCutoff="1.0000000000000000"/>
      <sparseX i="20" alpha="-3079.9093412617758" sparseCutoff="1.0000000000000000"/>
      <sparseX i="21" alpha="23333.361794987581" sparseCutoff="1.0000000000000000"/>
      <sparseX i="22" alpha="-134433.42049980132" sparseCutoff="1.0000000000000000"/>
      <sparseX i="23" alpha="-207342.09370651128" sparseCutoff="1.0000000000000000"/>
      <sparseX i="24" alpha="-50265.764133558281" sparseCutoff="1.0000000000000000"/>
      <sparseX i="25" alpha="104928.00571586611" sparseCutoff="1.0000000000000000"/>
      <sparseX i="26" alpha="-308541.61741181684" sparseCutoff="1.0000000000000000"/>
      <sparseX i="27" alpha="167937.70070151257" sparseCutoff="1.0000000000000000"/>
      <sparseX i="28" alpha="24565.034302542386" sparseCutoff="1.0000000000000000"/>
      <sparseX i="29" alpha="2450.8755691092256" sparseCutoff="1.0000000000000000"/>
      <sparseX i="30" alpha="-57248.211382617679" sparseCutoff="1.0000000000000000"/>
      <sparseX i="31" alpha="2410.7094588623149" sparseCutoff="1.0000000000000000"/>
      <sparseX i="32" alpha="2729.9677092437541" sparseCutoff="1.0000000000000000"/>
      <sparseX i="33" alpha="-15954.862283702321" sparseCutoff="1.0000000000000000"/>
      <sparseX i="34" alpha="23466.569361518221" sparseCutoff="1.0000000000000000"/>
      <sparseX i="35" alpha="-24065.166160847417" sparseCutoff="1.0000000000000000"/>
      <sparseX i="36" alpha="-34742.770400891211" sparseCutoff="1.0000000000000000"/>
      <sparseX i="37" alpha="14628.471610223045" sparseCutoff="1.0000000000000000"/>
      <sparseX i="38" alpha="-45712.045598046549" sparseCutoff="1.0000000000000000"/>
      <sparseX i="39" alpha="-26555.145530868162" sparseCutoff="1.0000000000000000"/>
      <sparseX i="40" alpha="22614.158653841492" sparseCutoff="1.0000000000000000"/>
      <sparseX i="41" alpha="-69177.903034719711" sparseCutoff="1.0000000000000000"/>
      <sparseX i="42" alpha="55658.022019939199" sparseCutoff="1.0000000000000000"/>
      <sparseX i="43" alpha="64982.238892202193" sparseCutoff="1.0000000000000000"/>
      <sparseX i="44" alpha="28362.838542147339" sparseCutoff="1.0000000000000000"/>
      <sparseX i="45" alpha="24792.382618950796" sparseCutoff="1.0000000000000000"/>
      <sparseX i="46" alpha="-44486.803905158675" sparseCutoff="1.0000000000000000"/>
      <sparseX i="47" alpha="5436.0046234847696" sparseCutoff="1.0000000000000000"/>
      <sparseX i="48" alpha="38226.114809632250" sparseCutoff="1.0000000000000000"/>
      <sparseX i="49" alpha="-57118.929824295759" sparseCutoff="1.0000000000000000"/>
      <sparseX i="50" alpha="89943.976117815197" sparseCutoff="1.0000000000000000"/>
      <sparseX i="51" alpha="7261.5298909950698" sparseCutoff="1.0000000000000000"/>
      <sparseX i="52" alpha="1472.9906586037105" sparseCutoff="1.0000000000000000"/>
      <sparseX i="53" alpha="-23437.426999952113" sparseCutoff="1.0000000000000000"/>
      <sparseX i="54" alpha="33201.896450407912" sparseCutoff="1.0000000000000000"/>
      <sparseX i="55" alpha="23092.205187028187" sparseCutoff="1.0000000000000000"/>
      <sparseX i="56" alpha="-22794.960608114248" sparseCutoff="1.0000000000000000"/>
      <sparseX i="57" alpha="-44781.950234963559" sparseCutoff="1.0000000000000000"/>
      <sparseX i="58" alpha="-14602.692805383449" sparseCutoff="1.0000000000000000"/>
      <sparseX i="59" alpha="-22135.695526294210" sparseCutoff="1.0000000000000000"/>
      <sparseX i="60" alpha="49765.729391738867" sparseCutoff="1.0000000000000000"/>
      <sparseX i="61" alpha="-73346.641352094055" sparseCutoff="1.0000000000000000"/>
      <sparseX i="62" alpha="-38158.954641404387" sparseCutoff="1.0000000000000000"/>
      <sparseX i="63" alpha="-27254.750868048261" sparseCutoff="1.0000000000000000"/>
      <sparseX i="64" alpha="3242.0773362444907" sparseCutoff="1.0000000000000000"/>
      <sparseX i="65" alpha="-18870.165161359862" sparseCutoff="1.0000000000000000"/>
      <sparseX i="66" alpha="-2103.8485318443304" sparseCutoff="1.0000000000000000"/>
      <sparseX i="67" alpha="-16077.853763216883" sparseCutoff="1.0000000000000000"/>
      <sparseX i="68" alpha="-6231.1639414172496" sparseCutoff="1.0000000000000000"/>
      <sparseX i="69" alpha="-10701.424959068099" sparseCutoff="1.0000000000000000"/>
      <sparseX i="70" alpha="-6109.3793923597732" sparseCutoff="1.0000000000000000"/>
      <sparseX i="71" alpha="21065.107111954461" sparseCutoff="1.0000000000000000"/>
      <sparseX i="72" alpha="1897.2279471318104" sparseCutoff="1.0000000000000000"/>
      <sparseX i="73" alpha="37791.011215775652" sparseCutoff="1.0000000000000000"/>
      <sparseX i="74" alpha="24406.762842518125" sparseCutoff="1.0000000000000000"/>
      <sparseX i="75" alpha="-26035.046430598206" sparseCutoff="1.0000000000000000"/>
      <sparseX i="76" alpha="-64270.303261638008" sparseCutoff="1.0000000000000000"/>
      <sparseX i="77" alpha="11708.967160142271" sparseCutoff="1.0000000000000000"/>
      <sparseX i="78" alpha="-6031.9676807841834" sparseCutoff="1.0000000000000000"/>
      <sparseX i="79" alpha="-12541.937624797563" sparseCutoff="1.0000000000000000"/>
      <sparseX i="80" alpha="1477.6384762839295" sparseCutoff="1.0000000000000000"/>
      <sparseX i="81" alpha="5464.8447044487411" sparseCutoff="1.0000000000000000"/>
      <sparseX i="82" alpha="-12647.603438601225" sparseCutoff="1.0000000000000000"/>
      <sparseX i="83" alpha="-219.53743785588375" sparseCutoff="1.0000000000000000"/>
      <sparseX i="84" alpha="-40315.599544239078" sparseCutoff="1.0000000000000000"/>
      <sparseX i="85" alpha="-37321.889114831793" sparseCutoff="1.0000000000000000"/>
      <sparseX i="86" alpha="136666.66136816138" sparseCutoff="1.0000000000000000"/>
      <sparseX i="87" alpha="98646.024891156776" sparseCutoff="1.0000000000000000"/>
      <sparseX i="88" alpha="63249.438014657899" sparseCutoff="1.0000000000000000"/>
      <sparseX i="89" alpha="-3700.3633706861965" sparseCutoff="1.0000000000000000"/>
      <sparseX i="90" alpha="6074.3573837277236" sparseCutoff="1.0000000000000000"/>
      <sparseX i="91" alpha="-80730.674252106590" sparseCutoff="1.0000000000000000"/>
      <sparseX i="92" alpha="-2265.2928750009073" sparseCutoff="1.0000000000000000"/>
      <sparseX i="93" alpha="8917.4371612462637" sparseCutoff="1.0000000000000000"/>
      <sparseX i="94" alpha="10971.496389779328" sparseCutoff="1.0000000000000000"/>
      <sparseX i="95" alpha="-7654.2848010324451" sparseCutoff="1.0000000000000000"/>
      <sparseX i="96" alpha="25865.651658946965" sparseCutoff="1.0000000000000000"/>
      <sparseX i="97" alpha="20387.382281083104" sparseCutoff="1.0000000000000000"/>
      <sparseX i="98" alpha="-53885.946964626994" sparseCutoff="1.0000000000000000"/>
      <sparseX i="99" alpha="-68107.932654732736" sparseCutoff="1.0000000000000000"/>
      <sparseX i="100" alpha="-45328.847795491922" sparseCutoff="1.0000000000000000"/>
      <sparseX i="101" alpha="-14835.156551157137" sparseCutoff="1.0000000000000000"/>
      <sparseX i="102" alpha="79954.661471193191" sparseCutoff="1.0000000000000000"/>
      <sparseX i="103" alpha="45275.981026874237" sparseCutoff="1.0000000000000000"/>
      <sparseX i="104" alpha="398.23206388000222" sparseCutoff="1.0000000000000000"/>
      <sparseX i="105" alpha="-20803.940965080455" sparseCutoff="1.0000000000000000"/>
      <sparseX i="106" alpha="-8273.0001617664784" sparseCutoff="1.0000000000000000"/>
      <sparseX i="107" alpha="9674.1220339492265" sparseCutoff="1.0000000000000000"/>
      <sparseX i="108" alpha="-26554.806551807873" sparseCutoff="1.0000000000000000"/>
      <sparseX i="109" alpha="26771.844402367111" sparseCutoff="1.0000000000000000"/>
      <sparseX i="110" alpha="-24498.056018641699" sparseCutoff="1.0000000000000000"/>
      <sparseX i="111" alpha="-57227.980080737936" sparseCutoff="1.0000000000000000"/>
      <sparseX i="112" alpha="-14972.500975416697" sparseCutoff="1.0000000000000000"/>
      <sparseX i="113" alpha="53527.134082112156" sparseCutoff="1.0000000000000000"/>
      <sparseX i="114" alpha="-111473.30177507641" sparseCutoff="1.0000000000000000"/>
      <sparseX i="115" alpha="23037.889780960868" sparseCutoff="1.0000000000000000"/>
      <sparseX i="116" alpha="22925.342838224304" sparseCutoff="1.0000000000000000"/>
      <sparseX i="117" alpha="40290.016865341415" sparseCutoff="1.0000000000000000"/>
      <sparseX i="118" alpha="41077.970622254012" sparseCutoff="1.0000000000000000"/>
      <sparseX i="119" alpha="-22879.564059996672" sparseCutoff="1.0000000000000000"/>
      <sparseX i="120" alpha="-52287.834320188260" sparseCutoff="1.0000000000000000"/>
      <sparseX i="121" alpha="-3128.3365764783302" sparseCutoff="1.0000000000000000"/>
      <sparseX i="122" alpha="-23815.455990421531" sparseCutoff="1.0000000000000000"/>
      <sparseX i="123" alpha="27765.951919064715" sparseCutoff="1.0000000000000000"/>
      <sparseX i="124" alpha="-10082.287318794464" sparseCutoff="1.0000000000000000"/>
      <sparseX i="125" alpha="50727.765173611675" sparseCutoff="1.0000000000000000"/>
      <sparseX i="126" alpha="103136.92611003158" sparseCutoff="1.0000000000000000"/>
      <sparseX i="127" alpha="26877.679347032961" sparseCutoff="1.0000000000000000"/>
      <sparseX i="128" alpha="27020.323527901568" sparseCutoff="1.0000000000000000"/>
      <sparseX i="129" alpha="-51295.612995299278" sparseCutoff="1.0000000000000000"/>
      <sparseX i="130" alpha="-26042.634061549314" sparseCutoff="1.0000000000000000"/>
      <sparseX i="131" alpha="58911.481200619572" sparseCutoff="1.0000000000000000"/>
      <sparseX i="132" alpha="-34361.890199768102" sparseCutoff="1.0000000000000000"/>
      <sparseX i="133" alpha="59076.130771043550" sparseCutoff="1.0000000000000000"/>
      <sparseX i="134" alpha="-44962.245762823237" sparseCutoff="1.0000000000000000"/>
      <sparseX i="135" alpha="230661.32911800919" sparseCutoff="1.0000000000000000"/>
      <sparseX i="136" alpha="12579.645702756281" sparseCutoff="1.0000000000000000"/>
      <sparseX i="137" alpha="291317.72594417335" sparseCutoff="1.0000000000000000"/>
      <sparseX i="138" alpha="52708.171681525979" sparseCutoff="1.0000000000000000"/>
      <sparseX i="139" alpha="-32248.760559886265" sparseCutoff="1.0000000000000000"/>
      <sparseX i="140" alpha="-35246.980209046626" sparseCutoff="1.0000000000000000"/>
      <sparseX i="141" alpha="-9873.4184719452114" sparseCutoff="1.0000000000000000"/>
      <sparseX i="142" alpha="8719.8148145705563" sparseCutoff="1.0000000000000000"/>
      <sparseX i="143" alpha="8074.2352456890994" sparseCutoff="1.0000000000000000"/>
      <sparseX i="144" alpha="25595.061261446270" sparseCutoff="1.0000000000000000"/>
      <sparseX i="145" alpha="3234.0260929103069" sparseCutoff="1.0000000000000000"/>
      <sparseX i="146" alpha="41770.456779995024" sparseCutoff="1.0000000000000000"/>
      <sparseX i="147" alpha="-3090.1778551579409" sparseCutoff="1.0000000000000000"/>
      <sparseX i="148" alpha="-6685.4714426760984" sparseCutoff="1.0000000000000000"/>
      <sparseX i="149" alpha="-60690.692097445317" sparseCutoff="1.0000000000000000"/>
      <sparseX i="150" alpha="9405.2672519471162" sparseCutoff="1.0000000000000000"/>
      <sparseX i="151" alpha="22572.059861218542" sparseCutoff="1.0000000000000000"/>
      <sparseX i="152" alpha="43987.108421108314" sparseCutoff="1.0000000000000000"/>
      <sparseX i="153" alpha="219599.26343681745" sparseCutoff="1.0000000000000000"/>
      <sparseX i="154" alpha="36579.855670738449" sparseCutoff="1.0000000000000000"/>
      <sparseX i="155" alpha="-170445.96807748242" sparseCutoff="1.0000000000000000"/>
      <sparseX i="156" alpha="-120.69258248486845" sparseCutoff="1.0000000000000000"/>
      <sparseX i="157" alpha="-51888.665415855176" sparseCutoff="1.0000000000000000"/>
      <sparseX i="158" alpha="-29894.562427574368" sparseCutoff="1.0000000000000000"/>
      <sparseX i="159" alpha="165930.65517957002" sparseCutoff="1.0000000000000000"/>
      <sparseX i="160" alpha="-102759.92634357831" sparseCutoff="1.0000000000000000"/>
      <sparseX i="161" alpha="-510.06614712983833" sparseCutoff="1.0000000000000000"/>
      <sparseX i="162" alpha="31248.931458432748" sparseCutoff="1.0000000000000000"/>
      <sparseX i="163" alpha="-44382.931117585889" sparseCutoff="1.0000000000000000"/>
      <sparseX i="164" alpha="54980.479073572002" sparseCutoff="1.0000000000000000"/>
      <sparseX i="165" alpha="60015.096177463485" sparseCutoff="1.0000000000000000"/>
      <sparseX i="166" alpha="-50025.611376291170" sparseCutoff="1.0000000000000000"/>
      <sparseX i="167" alpha="-15083.593952480893" sparseCutoff="1.0000000000000000"/>
      <sparseX i="168" alpha="-13834.481801040096" sparseCutoff="1.0000000000000000"/>
      <sparseX i="169" alpha="52459.106061162340" sparseCutoff="1.0000000000000000"/>
      <sparseX i="170" alpha="21559.082820061820" sparseCutoff="1.0000000000000000"/>
      <sparseX i="171" alpha="-9451.4721135396903" sparseCutoff="1.0000000000000000"/>
      <sparseX i="172" alpha="11485.980656231337" sparseCutoff="1.0000000000000000"/>
      <sparseX i="173" alpha="-44617.661769940329" sparseCutoff="1.0000000000000000"/>
      <sparseX i="174" alpha="-265519.98753257876" sparseCutoff="1.0000000000000000"/>
      <sparseX i="175" alpha="-11058.649758183878" sparseCutoff="1.0000000000000000"/>
      <sparseX i="176" alpha="45718.261557250065" sparseCutoff="1.0000000000000000"/>
      <sparseX i="177" alpha="9753.1459490943271" sparseCutoff="1.0000000000000000"/>
      <sparseX i="178" alpha="38325.715595243986" sparseCutoff="1.0000000000000000"/>
      <sparseX i="179" alpha="-13460.340441524379" sparseCutoff="1.0000000000000000"/>
      <sparseX i="180" alpha="51766.116842495256" sparseCutoff="1.0000000000000000"/>
      <sparseX i="181" alpha="-79028.071410581033" sparseCutoff="1.0000000000000000"/>
      <sparseX i="182" alpha="352431.97397933877" sparseCutoff="1.0000000000000000"/>
      <sparseX i="183" alpha="-340398.04233501002" sparseCutoff="1.0000000000000000"/>
      <sparseX i="184" alpha="114460.23583573315" sparseCutoff="1.0000000000000000"/>
      <sparseX i="185" alpha="-78817.683993330545" sparseCutoff="1.0000000000000000"/>
      <sparseX i="186" alpha="-32966.136241011329" sparseCutoff="1.0000000000000000"/>
      <sparseX i="187" alpha="-43285.161920518643" sparseCutoff="1.0000000000000000"/>
      <sparseX i="188" alpha="-79231.061958018938" sparseCutoff="1.0000000000000000"/>
      <sparseX i="189" alpha="-23875.180070182614" sparseCutoff="1.0000000000000000"/>
      <sparseX i="190" alpha="12022.757272448287" sparseCutoff="1.0000000000000000"/>
      <sparseX i="191" alpha="15922.652595142521" sparseCutoff="1.0000000000000000"/>
      <sparseX i="192" alpha="37449.902275024171" sparseCutoff="1.0000000000000000"/>
      <sparseX i="193" alpha="-4248.2886622119877" sparseCutoff="1.0000000000000000"/>
      <sparseX i="194" alpha="28439.838019947663" sparseCutoff="1.0000000000000000"/>
      <sparseX i="195" alpha="-29785.746232288999" sparseCutoff="1.0000000000000000"/>
      <sparseX i="196" alpha="47517.993039857676" sparseCutoff="1.0000000000000000"/>
      <sparseX i="197" alpha="-41884.608818018656" sparseCutoff="1.0000000000000000"/>
      <sparseX i="198" alpha="-160200.81738334332" sparseCutoff="1.0000000000000000"/>
      <sparseX i="199" alpha="31098.376889884163" sparseCutoff="1.0000000000000000"/>
      <sparseX i="200" alpha="-45619.481773617299" sparseCutoff="1.0000000000000000"/>
      <sparseX i="201" alpha="-35906.464526472104" sparseCutoff="1.0000000000000000"/>
      <sparseX i="202" alpha="13117.431704352204" sparseCutoff="1.0000000000000000"/>
      <sparseX i="203" alpha="54947.130903834644" sparseCutoff="1.0000000000000000"/>
      <sparseX i="204" alpha="1431.1208902168091" sparseCutoff="1.0000000000000000"/>
      <sparseX i="205" alpha="73065.094750116317" sparseCutoff="1.0000000000000000"/>
      <sparseX i="206" alpha="196510.18370677915" sparseCutoff="1.0000000000000000"/>
      <sparseX i="207" alpha="-36390.083527837494" sparseCutoff="1.0000000000000000"/>
      <sparseX i="208" alpha="-4207.0701787913013" sparseCutoff="1.0000000000000000"/>
      <sparseX i="209" alpha="-6856.1058026999299" sparseCutoff="1.0000000000000000"/>
      <sparseX i="210" alpha="-12920.836035497930" sparseCutoff="1.0000000000000000"/>
      <sparseX i="211" alpha="-5869.5259553669212" sparseCutoff="1.0000000000000000"/>
      <sparseX i="212" alpha="124015.32442029574" sparseCutoff="1.0000000000000000"/>
      <sparseX i="213" alpha="207968.19090843986" sparseCutoff="1.0000000000000000"/>
      <sparseX i="214" alpha="-16845.490849683847" sparseCutoff="1.0000000000000000"/>
      <sparseX i="215" alpha="6148.9703790600033" sparseCutoff="1.0000000000000000"/>
      <sparseX i="216" alpha="24391.893616580586" sparseCutoff="1.0000000000000000"/>
      <sparseX i="217" alpha="5308.7302050669523" sparseCutoff="1.0000000000000000"/>
      <sparseX i="218" alpha="-51644.245641796129" sparseCutoff="1.0000000000000000"/>
      <sparseX i="219" alpha="39526.238993755265" sparseCutoff="1.0000000000000000"/>
      <sparseX i="220" alpha="31695.217072279243" sparseCutoff="1.0000000000000000"/>
      <sparseX i="221" alpha="-25569.831040843052" sparseCutoff="1.0000000000000000"/>
      <sparseX i="222" alpha="-14234.985600672509" sparseCutoff="1.0000000000000000"/>
      <sparseX i="223" alpha="-52641.233525655669" sparseCutoff="1.0000000000000000"/>
      <sparseX i="224" alpha="-16540.239462305512" sparseCutoff="1.0000000000000000"/>
      <sparseX i="225" alpha="16502.445134131332" sparseCutoff="1.0000000000000000"/>
      <sparseX i="226" alpha="21697.973216141811" sparseCutoff="1.0000000000000000"/>
      <sparseX i="227" alpha="-41082.823625533587" sparseCutoff="1.0000000000000000"/>
      <sparseX i="228" alpha="9801.1873828420376" sparseCutoff="1.0000000000000000"/>
      <sparseX i="229" alpha="2320.5040643928733" sparseCutoff="1.0000000000000000"/>
      <sparseX i="230" alpha="-12308.676042802812" sparseCutoff="1.0000000000000000"/>
      <sparseX i="231" alpha="-8666.6088245484407" sparseCutoff="1.0000000000000000"/>
      <sparseX i="232" alpha="33440.490960680152" sparseCutoff="1.0000000000000000"/>
      <sparseX i="233" alpha="6088.7445118178020" sparseCutoff="1.0000000000000000"/>
      <sparseX i="234" alpha="7589.2371773336117" sparseCutoff="1.0000000000000000"/>
      <sparseX i="235" alpha="-3429.3076040083429" sparseCutoff="1.0000000000000000"/>
      <sparseX i="236" alpha="81832.627223745440" sparseCutoff="1.0000000000000000"/>
      <sparseX i="237" alpha="-89718.690855808934" sparseCutoff="1.0000000000000000"/>
      <sparseX i="238" alpha="147510.20618778144" sparseCutoff="1.0000000000000000"/>
      <sparseX i="239" alpha="183527.07960864523" sparseCutoff="1.0000000000000000"/>
      <sparseX i="240" alpha="-49054.618529404157" sparseCutoff="1.0000000000000000"/>
      <sparseX i="241" alpha="60921.724376724436" sparseCutoff="1.0000000000000000"/>
      <sparseX i="242" alpha="77428.951399893398" sparseCutoff="1.0000000000000000"/>
      <sparseX i="243" alpha="92281.621440075047" sparseCutoff="1.0000000000000000"/>
      <sparseX i="244" alpha="-25893.347089241808" sparseCutoff="1.0000000000000000"/>
      <sparseX i="245" alpha="12470.785622694219" sparseCutoff="1.0000000000000000"/>
      <sparseX i="246" alpha="41855.967803547734" sparseCutoff="1.0000000000000000"/>
      <sparseX i="247" alpha="-52193.031220421501" sparseCutoff="1.0000000000000000"/>
      <sparseX i="248" alpha="-34466.952245484375" sparseCutoff="1.0000000000000000"/>
      <sparseX i="249" alpha="-15325.019689025918" sparseCutoff="1.0000000000000000"/>
      <sparseX i="250" alpha="6402.8194643310471" sparseCutoff="1.0000000000000000"/>
      <sparseX i="251" alpha="-6501.1722609323442" sparseCutoff="1.0000000000000000"/>
      <sparseX i="252" alpha="-3918.6104826277183" sparseCutoff="1.0000000000000000"/>
      <sparseX i="253" alpha="21932.590135572304" sparseCutoff="1.0000000000000000"/>
      <sparseX i="254" alpha="-50344.535175270343" sparseCutoff="1.0000000000000000"/>
      <sparseX i="255" alpha="-74161.036015518213" sparseCutoff="1.0000000000000000"/>
      <sparseX i="256" alpha="-8469.7503856944859" sparseCutoff="1.0000000000000000"/>
      <sparseX i="257" alpha="-47522.499899586590" sparseCutoff="1.0000000000000000"/>
      <sparseX i="258" alpha="8376.5013520622324" sparseCutoff="1.0000000000000000"/>
      <sparseX i="259" alpha="-115742.30426016088" sparseCutoff="1.0000000000000000"/>
      <sparseX i="260" alpha="-16264.666504351626" sparseCutoff="1.0000000000000000"/>
      <sparseX i="261" alpha="36346.059671098919" sparseCutoff="1.0000000000000000"/>
      <sparseX i="262" alpha="26490.997412063483" sparseCutoff="1.0000000000000000"/>
      <sparseX i="263" alpha="-97220.208574895136" sparseCutoff="1.0000000000000000"/>
      <sparseX i="264" alpha="-29110.716854119852" sparseCutoff="1.0000000000000000"/>
      <sparseX i="265" alpha="-44819.140631044414" sparseCutoff="1.0000000000000000"/>
      <sparseX i="266" alpha="71107.369398772411" sparseCutoff="1.0000000000000000"/>
      <sparseX i="267" alpha="115002.23098358190" sparseCutoff="1.0000000000000000"/>
      <sparseX i="268" alpha="-14145.528810255702" sparseCutoff="1.0000000000000000"/>
      <sparseX i="269" alpha="-85057.248397137955" sparseCutoff="1.0000000000000000"/>
      <sparseX i="270" alpha="-26925.207590948834" sparseCutoff="1.0000000000000000"/>
      <sparseX i="271" alpha="98131.656742718144" sparseCutoff="1.0000000000000000"/>
      <sparseX i="272" alpha="-33484.114307269701" sparseCutoff="1.0000000000000000"/>
      <sparseX i="273" alpha="48942.306200262137" sparseCutoff="1.0000000000000000"/>
      <sparseX i="274" alpha="3901.4481456026938" sparseCutoff="1.0000000000000000"/>
      <sparseX i="275" alpha="-35288.471534018958" sparseCutoff="1.0000000000000000"/>
      <sparseX i="276" alpha="68514.184212651599" sparseCutoff="1.0000000000000000"/>
      <sparseX i="277" alpha="22605.673784465995" sparseCutoff="1.0000000000000000"/>
      <sparseX i="278" alpha="2937.6845376867855" sparseCutoff="1.0000000000000000"/>
      <sparseX i="279" alpha="16291.166007678677" sparseCutoff="1.0000000000000000"/>
      <sparseX i="280" alpha="-87272.701958733029" sparseCutoff="1.0000000000000000"/>
      <sparseX i="281" alpha="-77590.743341211724" sparseCutoff="1.0000000000000000"/>
      <sparseX i="282" alpha="-80259.218828853278" sparseCutoff="1.0000000000000000"/>
      <sparseX i="283" alpha="-57393.094201689513" sparseCutoff="1.0000000000000000"/>
      <sparseX i="284" alpha="-82488.028179682704" sparseCutoff="1.0000000000000000"/>
      <sparseX i="285" alpha="98738.007267257592" sparseCutoff="1.0000000000000000"/>
      <sparseX i="286" alpha="-25649.199573242196" sparseCutoff="1.0000000000000000"/>
      <sparseX i="287" alpha="-2571.0926767267988" sparseCutoff="1.0000000000000000"/>
      <sparseX i="288" alpha="-78957.559957193560" sparseCutoff="1.0000000000000000"/>
      <sparseX i="289" alpha="-36198.336473172109" sparseCutoff="1.0000000000000000"/>
      <sparseX i="290" alpha="31454.610525644322" sparseCutoff="1.0000000000000000"/>
      <sparseX i="291" alpha="-41738.797986415957" sparseCutoff="1.0000000000000000"/>
      <sparseX i="292" alpha="38770.256931845419" sparseCutoff="1.0000000000000000"/>
      <sparseX i="293" alpha="79911.179201974155" sparseCutoff="1.0000000000000000"/>
      <sparseX i="294" alpha="-62168.835285904708" sparseCutoff="1.0000000000000000"/>
      <sparseX i="295" alpha="-51009.146722925470" sparseCutoff="1.0000000000000000"/>
      <sparseX i="296" alpha="87370.090928462290" sparseCutoff="1.0000000000000000"/>
      <sparseX i="297" alpha="76226.259395372093" sparseCutoff="1.0000000000000000"/>
      <sparseX i="298" alpha="82632.237258743422" sparseCutoff="1.0000000000000000"/>
      <sparseX i="299" alpha="55382.318375300216" sparseCutoff="1.0000000000000000"/>
      <sparseX i="300" alpha="44482.251262949911" sparseCutoff="1.0000000000000000"/>
      <sparseX i="301" alpha="109733.54450648394" sparseCutoff="1.0000000000000000"/>
      <sparseX i="302" alpha="25625.244770731279" sparseCutoff="1.0000000000000000"/>
      <sparseX i="303" alpha="26597.503418263728" sparseCutoff="1.0000000000000000"/>
      <sparseX i="304" alpha="-11526.682158058273" sparseCutoff="1.0000000000000000"/>
      <sparseX i="305" alpha="24595.195429660747" sparseCutoff="1.0000000000000000"/>
      <sparseX i="306" alpha="5987.2662821519789" sparseCutoff="1.0000000000000000"/>
      <sparseX i="307" alpha="12800.126306862936" sparseCutoff="1.0000000000000000"/>
      <sparseX i="308" alpha="45716.708858540944" sparseCutoff="1.0000000000000000"/>
      <sparseX i="309" alpha="27006.170463057002" sparseCutoff="1.0000000000000000"/>
      <sparseX i="310" alpha="-22402.737807607384" sparseCutoff="1.0000000000000000"/>
      <sparseX i="311" alpha="8143.5383645531838" sparseCutoff="1.0000000000000000"/>
      <sparseX i="312" alpha="28627.574800750186" sparseCutoff="1.0000000000000000"/>
      <sparseX i="313" alpha="85656.036821077854" sparseCutoff="1.0000000000000000"/>
      <sparseX i="314" alpha="48337.499702390269" sparseCutoff="1.0000000000000000"/>
      <sparseX i="315" alpha="8309.2695517068551" sparseCutoff="1.0000000000000000"/>
      <sparseX i="316" alpha="-190638.17149949970" sparseCutoff="1.0000000000000000"/>
      <sparseX i="317" alpha="89540.936732645408" sparseCutoff="1.0000000000000000"/>
      <sparseX i="318" alpha="-8666.5193854606423" sparseCutoff="1.0000000000000000"/>
      <sparseX i="319" alpha="177423.59158198224" sparseCutoff="1.0000000000000000"/>
      <sparseX i="320" alpha="112901.18464083619" sparseCutoff="1.0000000000000000"/>
      <sparseX i="321" alpha="-140369.07967588081" sparseCutoff="1.0000000000000000"/>
      <sparseX i="322" alpha="-164863.14461913862" sparseCutoff="1.0000000000000000"/>
      <sparseX i="323" alpha="11058.981721315631" sparseCutoff="1.0000000000000000"/>
      <sparseX i="324" alpha="-29188.220445834562" sparseCutoff="1.0000000000000000"/>
      <sparseX i="325" alpha="6044.8876979522875" sparseCutoff="1.0000000000000000"/>
      <sparseX i="326" alpha="-41772.589627236062" sparseCutoff="1.0000000000000000"/>
      <sparseX i="327" alpha="-8131.6630551632406" sparseCutoff="1.0000000000000000"/>
      <sparseX i="328" alpha="8537.9916814863154" sparseCutoff="1.0000000000000000"/>
      <sparseX i="329" alpha="-31978.126797537236" sparseCutoff="1.0000000000000000"/>
      <sparseX i="330" alpha="-71250.049637474047" sparseCutoff="1.0000000000000000"/>
      <sparseX i="331" alpha="48151.147995092317" sparseCutoff="1.0000000000000000"/>
      <sparseX i="332" alpha="-45042.693971578723" sparseCutoff="1.0000000000000000"/>
      <sparseX i="333" alpha="-18069.291995034706" sparseCutoff="1.0000000000000000"/>
      <sparseX i="334" alpha="86247.430209308877" sparseCutoff="1.0000000000000000"/>
      <sparseX i="335" alpha="-19805.709054133793" sparseCutoff="1.0000000000000000"/>
      <sparseX i="336" alpha="48277.459628872668" sparseCutoff="1.0000000000000000"/>
      <sparseX i="337" alpha="-6736.0362107633428" sparseCutoff="1.0000000000000000"/>
      <sparseX i="338" alpha="-9734.8759136406643" sparseCutoff="1.0000000000000000"/>
      <sparseX i="339" alpha="22590.326525608831" sparseCutoff="1.0000000000000000"/>
      <sparseX i="340" alpha="-16182.059025321900" sparseCutoff="1.0000000000000000"/>
      <sparseX i="341" alpha="-11626.070500669159" sparseCutoff="1.0000000000000000"/>
      <sparseX i="342" alpha="30936.956737105156" sparseCutoff="1.0000000000000000"/>
      <sparseX i="343" alpha="82422.477068878230" sparseCutoff="1.0000000000000000"/>
      <sparseX i="344" alpha="29069.950627581031" sparseCutoff="1.0000000000000000"/>
      <sparseX i="345" alpha="44421.975450474863" sparseCutoff="1.0000000000000000"/>
      <sparseX i="346" alpha="-63258.509998564630" sparseCutoff="1.0000000000000000"/>
      <sparseX i="347" alpha="-33776.131110111433" sparseCutoff="1.0000000000000000"/>
      <sparseX i="348" alpha="158566.04092608273" sparseCutoff="1.0000000000000000"/>
      <sparseX i="349" alpha="155811.63268922913" sparseCutoff="1.0000000000000000"/>
      <sparseX i="350" alpha="-28562.476544543846" sparseCutoff="1.0000000000000000"/>
      <sparseX i="351" alpha="-40943.661204990654" sparseCutoff="1.0000000000000000"/>
      <sparseX i="352" alpha="-8262.0173767643846" sparseCutoff="1.0000000000000000"/>
      <sparseX i="353" alpha="4497.5330064814343" sparseCutoff="1.0000000000000000"/>
      <sparseX i="354" alpha="-29790.034404845530" sparseCutoff="1.0000000000000000"/>
      <sparseX i="355" alpha="-10802.033325482611" sparseCutoff="1.0000000000000000"/>
      <sparseX i="356" alpha="86039.581232269760" sparseCutoff="1.0000000000000000"/>
      <sparseX i="357" alpha="-8674.8313599851354" sparseCutoff="1.0000000000000000"/>
      <sparseX i="358" alpha="-46911.007450450277" sparseCutoff="1.0000000000000000"/>
      <sparseX i="359" alpha="27388.690849290975" sparseCutoff="1.0000000000000000"/>
      <sparseX i="360" alpha="-27469.102451573766" sparseCutoff="1.0000000000000000"/>
      <sparseX i="361" alpha="27406.140720230942" sparseCutoff="1.0000000000000000"/>
      <sparseX i="362" alpha="38560.035527654953" sparseCutoff="1.0000000000000000"/>
      <sparseX i="363" alpha="-49357.316694426256" sparseCutoff="1.0000000000000000"/>
      <sparseX i="364" alpha="43622.452213712422" sparseCutoff="1.0000000000000000"/>
      <sparseX i="365" alpha="81031.231349512513" sparseCutoff="1.0000000000000000"/>
      <sparseX i="366" alpha="-50575.471066565202" sparseCutoff="1.0000000000000000"/>
      <sparseX i="367" alpha="23052.187855134536" sparseCutoff="1.0000000000000000"/>
      <sparseX i="368" alpha="14214.578384589540" sparseCutoff="1.0000000000000000"/>
      <sparseX i="369" alpha="-11076.741596616401" sparseCutoff="1.0000000000000000"/>
      <sparseX i="370" alpha="-21947.879981691054" sparseCutoff="1.0000000000000000"/>
      <sparseX i="371" alpha="-99495.839908622453" sparseCutoff="1.0000000000000000"/>
      <sparseX i="372" alpha="56415.179591098022" sparseCutoff="1.0000000000000000"/>
      <sparseX i="373" alpha="-55737.074261875445" sparseCutoff="1.0000000000000000"/>
      <sparseX i="374" alpha="-66683.973147513840" sparseCutoff="1.0000000000000000"/>
      <sparseX i="375" alpha="-22122.717303896254" sparseCutoff="1.0000000000000000"/>
      <sparseX i="376" alpha="-9351.0473560574719" sparseCutoff="1.0000000000000000"/>
      <sparseX i="377" alpha="9293.6713060702750" sparseCutoff="1.0000000000000000"/>
      <sparseX i="378" alpha="390.43134125704876" sparseCutoff="1.0000000000000000"/>
      <sparseX i="379" alpha="-19054.761957834573" sparseCutoff="1.0000000000000000"/>
      <sparseX i="380" alpha="-10149.857402267857" sparseCutoff="1.0000000000000000"/>
      <sparseX i="381" alpha="-66566.042751546716" sparseCutoff="1.0000000000000000"/>
      <sparseX i="382" alpha="-29766.886702769065" sparseCutoff="1.0000000000000000"/>
      <sparseX i="383" alpha="71955.990216538295" sparseCutoff="1.0000000000000000"/>
      <sparseX i="384" alpha="32073.941332499566" sparseCutoff="1.0000000000000000"/>
      <sparseX i="385" alpha="-7162.9840421088329" sparseCutoff="1.0000000000000000"/>
      <sparseX i="386" alpha="-14364.253155829852" sparseCutoff="1.0000000000000000"/>
      <sparseX i="387" alpha="-4655.6846861413405" sparseCutoff="1.0000000000000000"/>
      <sparseX i="388" alpha="-111602.75937705814" sparseCutoff="1.0000000000000000"/>
      <sparseX i="389" alpha="80120.468781206728" sparseCutoff="1.0000000000000000"/>
      <sparseX i="390" alpha="197064.65161637162" sparseCutoff="1.0000000000000000"/>
      <sparseX i="391" alpha="-61341.516738536739" sparseCutoff="1.0000000000000000"/>
      <sparseX i="392" alpha="37040.457432204894" sparseCutoff="1.0000000000000000"/>
      <sparseX i="393" alpha="-50586.722587227116" sparseCutoff="1.0000000000000000"/>
      <sparseX i="394" alpha="10338.815107703085" sparseCutoff="1.0000000000000000"/>
      <sparseX i="395" alpha="-23991.696502830342" sparseCutoff="1.0000000000000000"/>
      <sparseX i="396" alpha="-31660.927780844882" sparseCutoff="1.0000000000000000"/>
      <sparseX i="397" alpha="54444.636083546313" sparseCutoff="1.0000000000000000"/>
      <sparseX i="398" alpha="120409.94093115244" sparseCutoff="1.0000000000000000"/>
      <sparseX i="399" alpha="-22033.559219004259" sparseCutoff="1.0000000000000000"/>
      <sparseX i="400" alpha="-36719.476429140443" sparseCutoff="1.0000000000000000"/>
      <sparseX i="401" alpha="27652.519404146042" sparseCutoff="1.0000000000000000"/>
      <sparseX i="402" alpha="-34200.940042885275" sparseCutoff="1.0000000000000000"/>
      <sparseX i="403" alpha="25891.035573883939" sparseCutoff="1.0000000000000000"/>
      <sparseX i="404" alpha="13901.307808435260" sparseCutoff="1.0000000000000000"/>
      <sparseX i="405" alpha="-58194.013059176556" sparseCutoff="1.0000000000000000"/>
      <sparseX i="406" alpha="-11098.101851096901" sparseCutoff="1.0000000000000000"/>
      <sparseX i="407" alpha="-25199.480007055976" sparseCutoff="1.0000000000000000"/>
      <sparseX i="408" alpha="75785.881656732439" sparseCutoff="1.0000000000000000"/>
      <sparseX i="409" alpha="35995.301624680033" sparseCutoff="1.0000000000000000"/>
      <sparseX i="410" alpha="28946.638348239940" sparseCutoff="1.0000000000000000"/>
      <sparseX i="411" alpha="-17050.634241344422" sparseCutoff="1.0000000000000000"/>
      <sparseX i="412" alpha="-46428.704258811384" sparseCutoff="1.0000000000000000"/>
      <sparseX i="413" alpha="-50448.224834066830" sparseCutoff="1.0000000000000000"/>
      <sparseX i="414" alpha="123912.69898205217" sparseCutoff="1.0000000000000000"/>
      <sparseX i="415" alpha="8884.0527184224738" sparseCutoff="1.0000000000000000"/>
      <sparseX i="416" alpha="10177.594859500179" sparseCutoff="1.0000000000000000"/>
      <sparseX i="417" alpha="-3529.9436807328634" sparseCutoff="1.0000000000000000"/>
      <sparseX i="418" alpha="32915.038468705141" sparseCutoff="1.0000000000000000"/>
      <sparseX i="419" alpha="-5499.4791539872549" sparseCutoff="1.0000000000000000"/>
      <sparseX i="420" alpha="-20169.156707052949" sparseCutoff="1.0000000000000000"/>
      <sparseX i="421" alpha="-66243.789456883926" sparseCutoff="1.0000000000000000"/>
      <sparseX i="422" alpha="999.49190293852985" sparseCutoff="1.0000000000000000"/>
      <sparseX i="423" alpha="-26008.580627711144" sparseCutoff="1.0000000000000000"/>
      <sparseX i="424" alpha="-32313.758865947661" sparseCutoff="1.0000000000000000"/>
      <sparseX i="425" alpha="-12411.615128004127" sparseCutoff="1.0000000000000000"/>
      <sparseX i="426" alpha="-35152.003094727348" sparseCutoff="1.0000000000000000"/>
      <sparseX i="427" alpha="-8920.2131034102822" sparseCutoff="1.0000000000000000"/>
      <sparseX i="428" alpha="-37841.044859024252" sparseCutoff="1.0000000000000000"/>
      <sparseX i="429" alpha="5554.5436941423341" sparseCutoff="1.0000000000000000"/>
      <sparseX i="430" alpha="20357.721302441601" sparseCutoff="1.0000000000000000"/>
      <sparseX i="431" alpha="-32980.816259328611" sparseCutoff="1.0000000000000000"/>
      <sparseX i="432" alpha="32951.763267087241" sparseCutoff="1.0000000000000000"/>
      <sparseX i="433" alpha="70288.333950202243" sparseCutoff="1.0000000000000000"/>
      <sparseX i="434" alpha="17493.716760876061" sparseCutoff="1.0000000000000000"/>
      <sparseX i="435" alpha="21906.828013915292" sparseCutoff="1.0000000000000000"/>
      <sparseX i="436" alpha="-4002.9255701498487" sparseCutoff="1.0000000000000000"/>
      <sparseX i="437" alpha="-11160.978646728739" sparseCutoff="1.0000000000000000"/>
      <sparseX i="438" alpha="40769.852533471909" sparseCutoff="1.0000000000000000"/>
      <sparseX i="439" alpha="-35660.068445512239" sparseCutoff="1.0000000000000000"/>
      <sparseX i="440" alpha="2710.8474492832029" sparseCutoff="1.0000000000000000"/>
      <sparseX i="441" alpha="-16519.299610330796" sparseCutoff="1.0000000000000000"/>
      <sparseX i="442" alpha="29326.873271812263" sparseCutoff="1.0000000000000000"/>
      <sparseX i="443" alpha="17628.674679826254" sparseCutoff="1.0000000000000000"/>
      <sparseX i="444" alpha="61435.501614789711" sparseCutoff="1.0000000000000000"/>
      <sparseX i="445" alpha="11281.365646656166" sparseCutoff="1.0000000000000000"/>
      <sparseX i="446" alpha="19814.990912157387" sparseCutoff="1.0000000000000000"/>
      <sparseX i="447" alpha="-8407.0412686288837" sparseCutoff="1.0000000000000000"/>
      <sparseX i="448" alpha="21788.191409098054" sparseCutoff="1.0000000000000000"/>
      <sparseX i="449" alpha="73180.955399515631" sparseCutoff="1.0000000000000000"/>
      <sparseX i="450" alpha="-36649.954781615350" sparseCutoff="1.0000000000000000"/>
      <sparseX i="451" alpha="3771.3851388345038" sparseCutoff="1.0000000000000000"/>
      <sparseX i="452" alpha="-130685.56636276741" sparseCutoff="1.0000000000000000"/>
      <sparseX i="453" alpha="75355.951059200976" sparseCutoff="1.0000000000000000"/>
      <sparseX i="454" alpha="-24921.132297120403" sparseCutoff="1.0000000000000000"/>
      <sparseX i="455" alpha="24124.077903945792" sparseCutoff="1.0000000000000000"/>
      <sparseX i="456" alpha="14165.082835249226" sparseCutoff="1.0000000000000000"/>
      <sparseX i="457" alpha="46135.686956043421" sparseCutoff="1.0000000000000000"/>
      <sparseX i="458" alpha="-27217.111619685274" sparseCutoff="1.0000000000000000"/>
      <sparseX i="459" alpha="10920.914090467008" sparseCutoff="1.0000000000000000"/>
      <sparseX i="460" alpha="42185.682846591350" sparseCutoff="1.0000000000000000"/>
      <sparseX i="461" alpha="-1993.3538719054823" sparseCutoff="1.0000000000000000"/>
      <sparseX i="462" alpha="-6507.9860042318705" sparseCutoff="1.0000000000000000"/>
      <sparseX i="463" alpha="-44174.708671191525" sparseCutoff="1.0000000000000000"/>
      <sparseX i="464" alpha="-18108.277249690895" sparseCutoff="1.0000000000000000"/>
      <sparseX i="465" alpha="35481.884578649180" sparseCutoff="1.0000000000000000"/>
      <sparseX i="466" alpha="102253.49828976477" sparseCutoff="1.0000000000000000"/>
      <sparseX i="467" alpha="-69428.990294340692" sparseCutoff="1.0000000000000000"/>
      <sparseX i="468" alpha="37235.071562854188" sparseCutoff="1.0000000000000000"/>
      <sparseX i="469" alpha="22471.573565209339" sparseCutoff="1.0000000000000000"/>
      <sparseX i="470" alpha="22361.360001732850" sparseCutoff="1.0000000000000000"/>
      <sparseX i="471" alpha="-9997.2180331666896" sparseCutoff="1.0000000000000000"/>
      <sparseX i="472" alpha="-3733.9931846283125" sparseCutoff="1.0000000000000000"/>
      <sparseX i="473" alpha="-68199.539794839002" sparseCutoff="1.0000000000000000"/>
      <sparseX i="474" alpha="9455.1296607955956" sparseCutoff="1.0000000000000000"/>
      <sparseX i="475" alpha="-18383.918665710320" sparseCutoff="1.0000000000000000"/>
      <sparseX i="476" alpha="12723.414890568803" sparseCutoff="1.0000000000000000"/>
      <sparseX i="477" alpha="-21540.420806730013" sparseCutoff="1.0000000000000000"/>
      <sparseX i="478" alpha="-27042.855016584854" sparseCutoff="1.0000000000000000"/>
      <sparseX i="479" alpha="265.25516166802043" sparseCutoff="1.0000000000000000"/>
      <sparseX i="480" alpha="7240.2294664911788" sparseCutoff="1.0000000000000000"/>
      <sparseX i="481" alpha="-9591.5498239592616" sparseCutoff="1.0000000000000000"/>
      <sparseX i="482" alpha="82493.010847817597" sparseCutoff="1.0000000000000000"/>
      <sparseX i="483" alpha="1637.9552945975286" sparseCutoff="1.0000000000000000"/>
      <sparseX i="484" alpha="-8952.4657683027563" sparseCutoff="1.0000000000000000"/>
      <sparseX i="485" alpha="-4204.3481494625157" sparseCutoff="1.0000000000000000"/>
      <sparseX i="486" alpha="4100.9552817046124" sparseCutoff="1.0000000000000000"/>
      <sparseX i="487" alpha="-13989.198575104403" sparseCutoff="1.0000000000000000"/>
      <sparseX i="488" alpha="18559.877843750768" sparseCutoff="1.0000000000000000"/>
      <sparseX i="489" alpha="-28901.295741667764" sparseCutoff="1.0000000000000000"/>
      <sparseX i="490" alpha="11322.326130760766" sparseCutoff="1.0000000000000000"/>
      <sparseX i="491" alpha="26508.914215155415" sparseCutoff="1.0000000000000000"/>
      <sparseX i="492" alpha="-4123.4821871854483" sparseCutoff="1.0000000000000000"/>
      <sparseX i="493" alpha="10407.529919563487" sparseCutoff="1.0000000000000000"/>
      <sparseX i="494" alpha="-92809.580032327372" sparseCutoff="1.0000000000000000"/>
      <sparseX i="495" alpha="246603.99299768847" sparseCutoff="1.0000000000000000"/>
      <sparseX i="496" alpha="-17583.437195054561" sparseCutoff="1.0000000000000000"/>
      <sparseX i="497" alpha="134924.89624014439" sparseCutoff="1.0000000000000000"/>
      <sparseX i="498" alpha="-143095.98867740101" sparseCutoff="1.0000000000000000"/>
      <sparseX i="499" alpha="35388.701326988681" sparseCutoff="1.0000000000000000"/>
      <sparseX i="500" alpha="58330.155928638655" sparseCutoff="1.0000000000000000"/>
      <sparseX i="501" alpha="-25182.859113612962" sparseCutoff="1.0000000000000000"/>
      <sparseX i="502" alpha="-36947.116675130666" sparseCutoff="1.0000000000000000"/>
      <sparseX i="503" alpha="-20080.125761955049" sparseCutoff="1.0000000000000000"/>
      <sparseX i="504" alpha="-31587.073366080429" sparseCutoff="1.0000000000000000"/>
      <sparseX i="505" alpha="17853.058278101296" sparseCutoff="1.0000000000000000"/>
      <sparseX i="506" alpha="60472.129269290053" sparseCutoff="1.0000000000000000"/>
      <sparseX i="507" alpha="68045.299769898556" sparseCutoff="1.0000000000000000"/>
      <sparseX i="508" alpha="34895.580207113460" sparseCutoff="1.0000000000000000"/>
      <sparseX i="509" alpha="-28539.818360080015" sparseCutoff="1.0000000000000000"/>
      <sparseX i="510" alpha="6050.5353815473727" sparseCutoff="1.0000000000000000"/>
      <sparseX i="511" alpha="8105.9798499347617" sparseCutoff="1.0000000000000000"/>
      <sparseX i="512" alpha="65602.379629349030" sparseCutoff="1.0000000000000000"/>
      <sparseX i="513" alpha="-117923.11775924402" sparseCutoff="1.0000000000000000"/>
      <sparseX i="514" alpha="59900.466828163335" sparseCutoff="1.0000000000000000"/>
      <sparseX i="515" alpha="5099.7827475812719" sparseCutoff="1.0000000000000000"/>
      <sparseX i="516" alpha="21706.364975864079" sparseCutoff="1.0000000000000000"/>
      <sparseX i="517" alpha="-32375.877063555610" sparseCutoff="1.0000000000000000"/>
      <sparseX i="518" alpha="80000.893880203759" sparseCutoff="1.0000000000000000"/>
      <sparseX i="519" alpha="-101895.70952396274" sparseCutoff="1.0000000000000000"/>
      <sparseX i="520" alpha="-8796.2715409413813" sparseCutoff="1.0000000000000000"/>
      <sparseX i="521" alpha="18470.758748333406" sparseCutoff="1.0000000000000000"/>
      <sparseX i="522" alpha="-88022.630584613769" sparseCutoff="1.0000000000000000"/>
      <sparseX i="523" alpha="146767.64442571317" sparseCutoff="1.0000000000000000"/>
      <sparseX i="524" alpha="138007.77621582535" sparseCutoff="1.0000000000000000"/>
      <sparseX i="525" alpha="2811.4778557781779" sparseCutoff="1.0000000000000000"/>
      <sparseX i="526" alpha="-53983.474318074826" sparseCutoff="1.0000000000000000"/>
      <sparseX i="527" alpha="62926.158902040930" sparseCutoff="1.0000000000000000"/>
      <sparseX i="528" alpha="85688.956530090756" sparseCutoff="1.0000000000000000"/>
      <sparseX i="529" alpha="-16493.857938160862" sparseCutoff="1.0000000000000000"/>
      <sparseX i="530" alpha="-48288.905121368327" sparseCutoff="1.0000000000000000"/>
      <sparseX i="531" alpha="-46285.161192325453" sparseCutoff="1.0000000000000000"/>
      <sparseX i="532" alpha="34334.504168793042" sparseCutoff="1.0000000000000000"/>
      <sparseX i="533" alpha="32933.421352246769" sparseCutoff="1.0000000000000000"/>
      <sparseX i="534" alpha="-15943.654940713504" sparseCutoff="1.0000000000000000"/>
      <sparseX i="535" alpha="-17683.206812080112" sparseCutoff="1.0000000000000000"/>
      <sparseX i="536" alpha="-200220.80938054138" sparseCutoff="1.0000000000000000"/>
      <sparseX i="537" alpha="-10401.329774194628" sparseCutoff="1.0000000000000000"/>
      <sparseX i="538" alpha="18223.772792296219" sparseCutoff="1.0000000000000000"/>
      <sparseX i="539" alpha="30235.571976383661" sparseCutoff="1.0000000000000000"/>
      <sparseX i="540" alpha="-61567.288073532225" sparseCutoff="1.0000000000000000"/>
      <sparseX i="541" alpha="-19094.167617887702" sparseCutoff="1.0000000000000000"/>
      <sparseX i="542" alpha="41286.952646080659" sparseCutoff="1.0000000000000000"/>
      <sparseX i="543" alpha="28738.001421031382" sparseCutoff="1.0000000000000000"/>
      <sparseX i="544" alpha="-66907.788712327208" sparseCutoff="1.0000000000000000"/>
      <sparseX i="545" alpha="-11162.751163037288" sparseCutoff="1.0000000000000000"/>
      <sparseX i="546" alpha="127924.85495238700" sparseCutoff="1.0000000000000000"/>
      <sparseX i="547" alpha="-102253.39241517377" sparseCutoff="1.0000000000000000"/>
      <sparseX i="548" alpha="-14435.248159456316" sparseCutoff="1.0000000000000000"/>
      <sparseX i="549" alpha="-29377.771384527368" sparseCutoff="1.0000000000000000"/>
      <sparseX i="550" alpha="22646.134205839826" sparseCutoff="1.0000000000000000"/>
      <sparseX i="551" alpha="-66402.185693882857" sparseCutoff="1.0000000000000000"/>
      <sparseX i="552" alpha="39111.645565900588" sparseCutoff="1.0000000000000000"/>
      <sparseX i="553" alpha="-51133.328122050902" sparseCutoff="1.0000000000000000"/>
      <sparseX i="554" alpha="-23790.875662758139" sparseCutoff="1.0000000000000000"/>
      <sparseX i="555" alpha="108119.14628212378" sparseCutoff="1.0000000000000000"/>
      <sparseX i="556" alpha="-6245.1111641493435" sparseCutoff="1.0000000000000000"/>
      <sparseX i="557" alpha="23264.671975842892" sparseCutoff="1.0000000000000000"/>
      <sparseX i="558" alpha="27792.230913298452" sparseCutoff="1.0000000000000000"/>
      <sparseX i="559" alpha="-30064.706501024160" sparseCutoff="1.0000000000000000"/>
      <sparseX i="560" alpha="-148700.21811217989" sparseCutoff="1.0000000000000000"/>
      <sparseX i="561" alpha="20803.470354215951" sparseCutoff="1.0000000000000000"/>
      <sparseX i="562" alpha="2815.8254590751621" sparseCutoff="1.0000000000000000"/>
      <sparseX i="563" alpha="62298.192200626087" sparseCutoff="1.0000000000000000"/>
      <sparseX i="564" alpha="103077.26159956677" sparseCutoff="1.0000000000000000"/>
      <sparseX i="565" alpha="43610.019538935456" sparseCutoff="1.0000000000000000"/>
      <sparseX i="566" alpha="-11545.848683848659" sparseCutoff="1.0000000000000000"/>
      <sparseX i="567" alpha="57162.096435525818" sparseCutoff="1.0000000000000000"/>
      <sparseX i="568" alpha="-4554.2164542474948" sparseCutoff="1.0000000000000000"/>
      <sparseX i="569" alpha="14351.192955920509" sparseCutoff="1.0000000000000000"/>
      <sparseX i="570" alpha="-111383.67379910345" sparseCutoff="1.0000000000000000"/>
      <sparseX i="571" alpha="19945.581968956452" sparseCutoff="1.0000000000000000"/>
      <sparseX i="572" alpha="-28999.760683072142" sparseCutoff="1.0000000000000000"/>
      <sparseX i="573" alpha="-5760.7089257754424" sparseCutoff="1.0000000000000000"/>
      <sparseX i="574" alpha="80506.782935142590" sparseCutoff="1.0000000000000000"/>
      <sparseX i="575" alpha="83298.922694720444" sparseCutoff="1.0000000000000000"/>
      <sparseX i="576" alpha="-18290.140650475183" sparseCutoff="1.0000000000000000"/>
      <sparseX i="577" alpha="116974.58693802207" sparseCutoff="1.0000000000000000"/>
      <sparseX i="578" alpha="15262.648412021910" sparseCutoff="1.0000000000000000"/>
      <sparseX i="579" alpha="6953.6621277581935" sparseCutoff="1.0000000000000000"/>
      <sparseX i="580" alpha="-32566.932487037320" sparseCutoff="1.0000000000000000"/>
      <sparseX i="581" alpha="-28937.737070504336" sparseCutoff="1.0000000000000000"/>
      <sparseX i="582" alpha="19602.175543787478" sparseCutoff="1.0000000000000000"/>
      <sparseX i="583" alpha="-30948.554892249256" sparseCutoff="1.0000000000000000"/>
      <sparseX i="584" alpha="43209.782721658914" sparseCutoff="1.0000000000000000"/>
      <sparseX i="585" alpha="-49821.833895831653" sparseCutoff="1.0000000000000000"/>
      <sparseX i="586" alpha="-28413.065516428862" sparseCutoff="1.0000000000000000"/>
      <sparseX i="587" alpha="5530.4313673848810" sparseCutoff="1.0000000000000000"/>
      <sparseX i="588" alpha="-17390.990353560584" sparseCutoff="1.0000000000000000"/>
      <sparseX i="589" alpha="-49966.384425215540" sparseCutoff="1.0000000000000000"/>
      <sparseX i="590" alpha="-19311.683612104196" sparseCutoff="1.0000000000000000"/>
      <sparseX i="591" alpha="9379.0380619317348" sparseCutoff="1.0000000000000000"/>
      <sparseX i="592" alpha="56751.743573558633" sparseCutoff="1.0000000000000000"/>
      <sparseX i="593" alpha="-2143.4733591346990" sparseCutoff="1.0000000000000000"/>
      <sparseX i="594" alpha="-44088.783448663162" sparseCutoff="1.0000000000000000"/>
      <sparseX i="595" alpha="-31175.904114501835" sparseCutoff="1.0000000000000000"/>
      <sparseX i="596" alpha="36928.152725105749" sparseCutoff="1.0000000000000000"/>
      <sparseX i="597" alpha="50798.136263304943" sparseCutoff="1.0000000000000000"/>
      <sparseX i="598" alpha="-39350.814443601528" sparseCutoff="1.0000000000000000"/>
      <sparseX i="599" alpha="-22983.611671570568" sparseCutoff="1.0000000000000000"/>
      <sparseX i="600" alpha="3475.0403507822939" sparseCutoff="1.0000000000000000"/>
      <sparseX i="601" alpha="-4960.8278011201019" sparseCutoff="1.0000000000000000"/>
      <sparseX i="602" alpha="-47831.125728750667" sparseCutoff="1.0000000000000000"/>
      <sparseX i="603" alpha="-14735.681822798248" sparseCutoff="1.0000000000000000"/>
      <sparseX i="604" alpha="22850.882214397330" sparseCutoff="1.0000000000000000"/>
      <sparseX i="605" alpha="-2620.1997854493975" sparseCutoff="1.0000000000000000"/>
      <sparseX i="606" alpha="73516.361847576074" sparseCutoff="1.0000000000000000"/>
      <sparseX i="607" alpha="-50211.662142193571" sparseCutoff="1.0000000000000000"/>
      <sparseX i="608" alpha="36015.260744521169" sparseCutoff="1.0000000000000000"/>
      <sparseX i="609" alpha="119282.02018708715" sparseCutoff="1.0000000000000000"/>
      <sparseX i="610" alpha="3508.8314981798349" sparseCutoff="1.0000000000000000"/>
      <sparseX i="611" alpha="-5384.3660887286824" sparseCutoff="1.0000000000000000"/>
      <sparseX i="612" alpha="-168690.53943629147" sparseCutoff="1.0000000000000000"/>
      <sparseX i="613" alpha="-29955.563055424205" sparseCutoff="1.0000000000000000"/>
      <sparseX i="614" alpha="-34072.834454328164" sparseCutoff="1.0000000000000000"/>
      <sparseX i="615" alpha="-26062.317285295503" sparseCutoff="1.0000000000000000"/>
      <sparseX i="616" alpha="-20586.306315609123" sparseCutoff="1.0000000000000000"/>
      <sparseX i="617" alpha="5129.3390224713903" sparseCutoff="1.0000000000000000"/>
      <sparseX i="618" alpha="3454.3982787432319" sparseCutoff="1.0000000000000000"/>
      <sparseX i="619" alpha="24676.584278733488" sparseCutoff="1.0000000000000000"/>
      <sparseX i="620" alpha="-21226.688198204203" sparseCutoff="1.0000000000000000"/>
      <sparseX i="621" alpha="-7680.7256761958706" sparseCutoff="1.0000000000000000"/>
      <sparseX i="622" alpha="4568.4016150436919" sparseCutoff="1.0000000000000000"/>
      <sparseX i="623" alpha="46619.660335998502" sparseCutoff="1.0000000000000000"/>
      <sparseX i="624" alpha="5936.0832535788477" sparseCutoff="1.0000000000000000"/>
      <sparseX i="625" alpha="-36418.594343927587" sparseCutoff="1.0000000000000000"/>
      <sparseX i="626" alpha="12569.309581348147" sparseCutoff="1.0000000000000000"/>
      <sparseX i="627" alpha="-11662.998635999062" sparseCutoff="1.0000000000000000"/>
      <sparseX i="628" alpha="41398.604673524555" sparseCutoff="1.0000000000000000"/>
      <sparseX i="629" alpha="-24289.314577549369" sparseCutoff="1.0000000000000000"/>
      <sparseX i="630" alpha="29562.952780662064" sparseCutoff="1.0000000000000000"/>
      <sparseX i="631" alpha="-11286.809265188802" sparseCutoff="1.0000000000000000"/>
      <sparseX i="632" alpha="38719.288189413695" sparseCutoff="1.0000000000000000"/>
      <sparseX i="633" alpha="-37016.455532851498" sparseCutoff="1.0000000000000000"/>
      <sparseX i="634" alpha="-19470.760143187556" sparseCutoff="1.0000000000000000"/>
      <sparseX i="635" alpha="21668.632856334636" sparseCutoff="1.0000000000000000"/>
      <sparseX i="636" alpha="-25194.951928422783" sparseCutoff="1.0000000000000000"/>
      <sparseX i="637" alpha="34487.172479136949" sparseCutoff="1.0000000000000000"/>
      <sparseX i="638" alpha="-41251.207822567871" sparseCutoff="1.0000000000000000"/>
      <sparseX i="639" alpha="-64330.721571929149" sparseCutoff="1.0000000000000000"/>
      <sparseX i="640" alpha="-22600.922878930342" sparseCutoff="1.0000000000000000"/>
      <sparseX i="641" alpha="-14520.229903190531" sparseCutoff="1.0000000000000000"/>
      <sparseX i="642" alpha="15486.861627256116" sparseCutoff="1.0000000000000000"/>
      <sparseX i="643" alpha="-19387.227147950529" sparseCutoff="1.0000000000000000"/>
      <sparseX i="644" alpha="-11022.519950434047" sparseCutoff="1.0000000000000000"/>
      <sparseX i="645" alpha="686.38213743420226" sparseCutoff="1.0000000000000000"/>
      <sparseX i="646" alpha="10771.772003975186" sparseCutoff="1.0000000000000000"/>
      <sparseX i="647" alpha="24014.793591529393" sparseCutoff="1.0000000000000000"/>
      <sparseX i="648" alpha="-5606.9476255878835" sparseCutoff="1.0000000000000000"/>
      <sparseX i="649" alpha="5403.1386107492162" sparseCutoff="1.0000000000000000"/>
      <sparseX i="650" alpha="-16974.936478891297" sparseCutoff="1.0000000000000000"/>
      <sparseX i="651" alpha="-14436.324354057890" sparseCutoff="1.0000000000000000"/>
      <sparseX i="652" alpha="-4878.7534549301954" sparseCutoff="1.0000000000000000"/>
      <sparseX i="653" alpha="-118834.92001822010" sparseCutoff="1.0000000000000000"/>
      <sparseX i="654" alpha="-32395.051320021379" sparseCutoff="1.0000000000000000"/>
      <sparseX i="655" alpha="-61410.852569904135" sparseCutoff="1.0000000000000000"/>
      <sparseX i="656" alpha="10343.397628261186" sparseCutoff="1.0000000000000000"/>
      <sparseX i="657" alpha="-96917.475788763084" sparseCutoff="1.0000000000000000"/>
      <sparseX i="658" alpha="5471.9448642485750" sparseCutoff="1.0000000000000000"/>
      <sparseX i="659" alpha="57965.254584896080" sparseCutoff="1.0000000000000000"/>
      <sparseX i="660" alpha="8017.0444180626200" sparseCutoff="1.0000000000000000"/>
      <sparseX i="661" alpha="-7492.7721818984055" sparseCutoff="1.0000000000000000"/>
      <sparseX i="662" alpha="48733.736889299027" sparseCutoff="1.0000000000000000"/>
      <sparseX i="663" alpha="26976.800444565048" sparseCutoff="1.0000000000000000"/>
      <sparseX i="664" alpha="-61035.544811831525" sparseCutoff="1.0000000000000000"/>
      <sparseX i="665" alpha="21302.062811558251" sparseCutoff="1.0000000000000000"/>
      <sparseX i="666" alpha="15239.418380901536" sparseCutoff="1.0000000000000000"/>
      <sparseX i="667" alpha="-22072.324930812996" sparseCutoff="1.0000000000000000"/>
      <sparseX i="668" alpha="26118.262087129940" sparseCutoff="1.0000000000000000"/>
      <sparseX i="669" alpha="-25993.002446248876" sparseCutoff="1.0000000000000000"/>
      <sparseX i="670" alpha="16642.027275651337" sparseCutoff="1.0000000000000000"/>
      <sparseX i="671" alpha="2869.8041748581340" sparseCutoff="1.0000000000000000"/>
      <sparseX i="672" alpha="12203.847502361319" sparseCutoff="1.0000000000000000"/>
      <sparseX i="673" alpha="55718.746601829553" sparseCutoff="1.0000000000000000"/>
      <sparseX i="674" alpha="62408.255278397715" sparseCutoff="1.0000000000000000"/>
      <sparseX i="675" alpha="-16839.281929480909" sparseCutoff="1.0000000000000000"/>
      <sparseX i="676" alpha="-18094.996347868710" sparseCutoff="1.0000000000000000"/>
      <sparseX i="677" alpha="-489.49640664258311" sparseCutoff="1.0000000000000000"/>
      <sparseX i="678" alpha="31537.367496172959" sparseCutoff="1.0000000000000000"/>
      <sparseX i="679" alpha="79168.341330928233" sparseCutoff="1.0000000000000000"/>
      <sparseX i="680" alpha="-77551.728647924989" sparseCutoff="1.0000000000000000"/>
      <sparseX i="681" alpha="45510.840500149010" sparseCutoff="1.0000000000000000"/>
      <sparseX i="682" alpha="-204184.37947249971" sparseCutoff="1.0000000000000000"/>
      <sparseX i="683" alpha="-12350.890873455335" sparseCutoff="1.0000000000000000"/>
      <sparseX i="684" alpha="-16638.721406431632" sparseCutoff="1.0000000000000000"/>
      <sparseX i="685" alpha="-15569.516606258843" sparseCutoff="1.0000000000000000"/>
      <sparseX i="686" alpha="-11255.928749391618" sparseCutoff="1.0000000000000000"/>
      <sparseX i="687" alpha="74135.687025871302" sparseCutoff="1.0000000000000000"/>
      <sparseX i="688" alpha="40852.405299782302" sparseCutoff="1.0000000000000000"/>
      <sparseX i="689" alpha="-30090.533670270408" sparseCutoff="1.0000000000000000"/>
      <sparseX i="690" alpha="2483.1723625366135" sparseCutoff="1.0000000000000000"/>
      <sparseX i="691" alpha="-32199.385384183126" sparseCutoff="1.0000000000000000"/>
      <sparseX i="692" alpha="-13638.661610931085" sparseCutoff="1.0000000000000000"/>
      <sparseX i="693" alpha="-50982.164458682382" sparseCutoff="1.0000000000000000"/>
      <sparseX i="694" alpha="120952.57111196376" sparseCutoff="1.0000000000000000"/>
      <sparseX i="695" alpha="-20862.965505893713" sparseCutoff="1.0000000000000000"/>
      <sparseX i="696" alpha="-51590.193124855985" sparseCutoff="1.0000000000000000"/>
      <sparseX i="697" alpha="-89698.772852531736" sparseCutoff="1.0000000000000000"/>
      <sparseX i="698" alpha="-27088.741149973772" sparseCutoff="1.0000000000000000"/>
      <sparseX i="699" alpha="1396.5960197650722" sparseCutoff="1.0000000000000000"/>
      <sparseX i="700" alpha="74863.841530169651" sparseCutoff="1.0000000000000000"/>
      <sparseX i="701" alpha="-28879.222495294896" sparseCutoff="1.0000000000000000"/>
      <sparseX i="702" alpha="6953.0247025206509" sparseCutoff="1.0000000000000000"/>
      <sparseX i="703" alpha="6441.0142446081691" sparseCutoff="1.0000000000000000"/>
      <sparseX i="704" alpha="-1508.9851768819858" sparseCutoff="1.0000000000000000"/>
      <sparseX i="705" alpha="-56936.143383943956" sparseCutoff="1.0000000000000000"/>
      <sparseX i="706" alpha="-70407.640824219299" sparseCutoff="1.0000000000000000"/>
